{"learner":{"attributes":{"scikit_learn":"{\"_estimator_type\": \"classifier\"}"},"feature_names":["Location","MinTemp","MaxTemp","Rainfall","Evaporation","Sunshine","WindGustDir","WindGustSpeed","WindDir9am","WindDir3pm","WindSpeed9am","WindSpeed3pm","Humidity9am","Humidity3pm","Pressure9am","Cloud9am","Cloud3pm","RainToday","day","month","year"],"feature_types":["int","float","float","float","float","float","int","float","int","int","float","float","float","float","float","float","float","int","int","int","int"],"gradient_booster":{"model":{"gbtree_model_param":{"num_parallel_tree":"1","num_trees":"100"},"iteration_indptr":[0,1,2,3,4,5,6,7,8,9,10,11,12,13,14,15,16,17,18,19,20,21,22,23,24,25,26,27,28,29,30,31,32,33,34,35,36,37,38,39,40,41,42,43,44,45,46,47,48,49,50,51,52,53,54,55,56,57,58,59,60,61,62,63,64,65,66,67,68,69,70,71,72,73,74,75,76,77,78,79,80,81,82,83,84,85,86,87,88,89,90,91,92,93,94,95,96,97,98,99,100],"tree_info":[0,0,0,0,0,0,0,0,0,0,0,0,0,0,0,0,0,0,0,0,0,0,0,0,0,0,0,0,0,0,0,0,0,0,0,0,0,0,0,0,0,0,0,0,0,0,0,0,0,0,0,0,0,0,0,0,0,0,0,0,0,0,0,0,0,0,0,0,0,0,0,0,0,0,0,0,0,0,0,0,0,0,0,0,0,0,0,0,0,0,0,0,0,0,0,0,0,0,0,0],"trees":[{"base_weights":[-3.3919944E-4,-8.165393E-1,1.2088202E0,3.4709863E-2,-1.2448338E0,6.4856744E-1,1.6772976E0,-7.944983E-1,3.9955062E-1,-8.172722E-1,-1.4996947E0,-2.2068027E-1,1.0044022E0,1.0443116E0,1.7911594E0,-5.0377804E-1,-1.2487916E0,6.7301023E-1,-1.9798462E-1,-2.4458653E-1,-1.1638094E0,-1.2203689E0,-1.643328E0,-1.3079726E0,-6.4573735E-2,1.1249574E0,-6.2210464E-1,3.3451468E-1,1.3616954E0,1.4084282E0,1.8969021E0,-6.3268703E-1,4.801795E-1,-1.4431806E0,-8.798546E-1,-4.0715915E-1,7.8020644E-1,6.2135714E-1,-2.517183E-1,-5.508196E-1,1.8103363E-1,-1.4244754E0,-8.843253E-1,-1.000342E0,-1.608827E0,-1.7367287E0,-1.4859316E0,-2.3835629E-1,-1.382848E0,9.209443E-1,-2.1157554E-1,1.2772001E0,6.435702E-1,-1.0879592E0,1.3075401E-1,9.278849E-2,1.2049342E0,1.503452E0,-5.233738E-2,1.0578357E0,1.8464546E0,1.7243989E0,2.0017827E0,-2.6875556E-1,-8.2019016E-2,6.310388E-1,-1.0673968E-1,-4.8866117E-1,-3.6744413E-1,-3.3991855E-1,8.604383E-3,-4.1116256E-1,-6.27762E-2,3.3553684E-1,1.131954E-1,-1.714581E-1,2.9123122E-2,-9.371332E-2,-3.6702856E-1,6.378299E-1,-6.1711916E-3,-3.7938276E-1,-4.927024E-1,6.088611E-1,-2.7928308E-1,-3.5250017E-1,-1.479547E-1,-4.4030595E-1,-5.1894504E-1,-5.2640057E-1,-4.2914858E-1,6.1384463E-1,-4.596385E-1,1.4051989E-1,-2.897176E-1,-4.7100666E-1,-2.9515293E-1,1.16005085E-1,4.0704396E-1,-1.8239039E-3,-2.72138E-1,4.266289E-1,2.3348115E-1,6.284367E-1,1.7218205E-1,-2.0680113E-1,-4.6243668E-1,5.27057E-1,1.9006536E-3,1.8029982E-1,-7.203544E-2,4.7218016E-1,-2.027525E-2,5.079893E-1,3.4777555E-1,2.903446E-1,-1.395201E-1,6.3812363E-1,2.8113046E-1,5.7464534E-1,3.4016842E-1,5.5068535E-1,3.8342378E-1,5.6350917E-1,6.154431E-1],"categories":[],"categories_nodes":[],"categories_segments":[],"categories_sizes":[],"default_left":[0,0,0,0,0,0,0,0,0,0,0,0,0,0,0,0,0,0,0,0,0,0,0,0,0,0,0,0,0,0,0,0,0,0,0,0,0,0,0,0,0,0,0,0,0,0,0,0,0,0,0,0,0,0,0,0,0,0,0,0,0,0,0,0,0,0,0,0,0,0,0,0,0,0,0,0,0,0,0,0,0,0,0,0,0,0,0,0,0,0,0,0,0,0,0,0,0,0,0,0,0,0,0,0,0,0,0,0,0,0,0,0,0,0,0,0,0,0,0,0,0,0,0,0,0],"id":0,"left_children":[1,3,5,7,9,11,13,15,17,19,21,23,25,27,29,31,33,35,37,39,41,43,45,47,49,51,53,55,57,59,61,63,65,67,69,71,73,-1,75,77,79,81,83,85,87,89,91,93,95,97,99,101,103,105,107,109,111,113,115,117,119,121,123,-1,-1,-1,-1,-1,-1,-1,-1,-1,-1,-1,-1,-1,-1,-1,-1,-1,-1,-1,-1,-1,-1,-1,-1,-1,-1,-1,-1,-1,-1,-1,-1,-1,-1,-1,-1,-1,-1,-1,-1,-1,-1,-1,-1,-1,-1,-1,-1,-1,-1,-1,-1,-1,-1,-1,-1,-1,-1,-1,-1,-1,-1],"loss_changes":[2.0792904E4,4.5858467E3,2.2273574E3,1.274322E3,9.106201E2,1.1966635E3,3.313457E2,1.6935565E2,4.7810364E2,6.2035693E2,2.0829102E2,1.9075438E2,5.3890576E2,1.5887262E2,1.5585547E2,1.0006381E2,3.4700745E1,2.327052E2,1.1259459E2,1.5393079E2,1.4066333E2,1.508623E2,4.8265625E1,1.097142E1,1.4278415E2,1.8648145E2,6.679563E1,4.614659E1,9.797681E1,1.2886157E2,5.2023438E1,6.554706E1,1.2515062E2,1.12612915E1,4.0437515E1,3.4384068E1,2.4843652E2,0E0,1.0031256E2,1.0973872E2,1.9399533E2,3.297339E1,1.2995178E2,1.0053308E2,8.448364E0,9.381836E0,2.144419E2,5.819194E0,8.288742E0,2.926876E1,1.2253023E2,1.3918823E2,6.105182E1,2.0179764E1,1.4866867E1,2.9439579E1,2.2505508E1,2.7045471E1,1.959375E1,5.938806E1,1.638916E1,5.5561768E1,7.8032227E0,0E0,0E0,0E0,0E0,0E0,0E0,0E0,0E0,0E0,0E0,0E0,0E0,0E0,0E0,0E0,0E0,0E0,0E0,0E0,0E0,0E0,0E0,0E0,0E0,0E0,0E0,0E0,0E0,0E0,0E0,0E0,0E0,0E0,0E0,0E0,0E0,0E0,0E0,0E0,0E0,0E0,0E0,0E0,0E0,0E0,0E0,0E0,0E0,0E0,0E0,0E0,0E0,0E0,0E0,0E0,0E0,0E0,0E0,0E0,0E0,0E0,0E0],"parents":[2147483647,0,0,1,1,2,2,3,3,4,4,5,5,6,6,7,7,8,8,9,9,10,10,11,11,12,12,13,13,14,14,15,15,16,16,17,17,18,18,19,19,20,20,21,21,22,22,23,23,24,24,25,25,26,26,27,27,28,28,29,29,30,30,31,31,32,32,33,33,34,34,35,35,36,36,38,38,39,39,40,40,41,41,42,42,43,43,44,44,45,45,46,46,47,47,48,48,49,49,50,50,51,51,52,52,53,53,54,54,55,55,56,56,57,57,58,58,59,59,60,60,61,61,62,62],"right_children":[2,4,6,8,10,12,14,16,18,20,22,24,26,28,30,32,34,36,38,40,42,44,46,48,50,52,54,56,58,60,62,64,66,68,70,72,74,-1,76,78,80,82,84,86,88,90,92,94,96,98,100,102,104,106,108,110,112,114,116,118,120,122,124,-1,-1,-1,-1,-1,-1,-1,-1,-1,-1,-1,-1,-1,-1,-1,-1,-1,-1,-1,-1,-1,-1,-1,-1,-1,-1,-1,-1,-1,-1,-1,-1,-1,-1,-1,-1,-1,-1,-1,-1,-1,-1,-1,-1,-1,-1,-1,-1,-1,-1,-1,-1,-1,-1,-1,-1,-1,-1,-1,-1,-1,-1],"split_conditions":[5.827885E-1,3.5664245E-2,1.1133145E0,-3.9969057E-1,5.7774585E-1,-5.846611E-1,6.0607553E0,7.775442E-1,6.71739E-2,-2.1999708E-1,-4.013682E-1,2.0657246E0,6.062765E-1,-3.9969057E-1,-5.846611E-1,7.023687E0,2.9979476E-1,-9.869462E-1,-2.4589178E-1,5.03967E0,-3.9969057E-1,1.0912969E0,2.0657246E0,2E0,2E0,-4.9927592E-2,8.910317E-1,1.6108013E0,2.9243976E-1,1.7169724E0,1.5112386E0,2.4905376E-1,8E0,-7.9672015E-1,-4.9358037E-1,-1.7188596E0,7E0,6.2135714E-1,3.8108477E-1,5E0,6E0,1.0606691E0,-2.4589178E-1,6.2452335E-2,1.3480724E0,2.9979476E-1,3E0,4E0,5.1252737E0,-1.1850278E0,1.0798295E0,2.9388782E-1,6.23263E-1,8.915826E-1,6.23263E-1,-2.502256E-1,1.0344867E0,-5.34948E-1,-3.4601606E-2,7E0,1.2612005E0,-3.9229494E-1,7.023687E0,-2.6875556E-1,-8.2019016E-2,6.310388E-1,-1.0673968E-1,-4.8866117E-1,-3.6744413E-1,-3.3991855E-1,8.604383E-3,-4.1116256E-1,-6.27762E-2,3.3553684E-1,1.131954E-1,-1.714581E-1,2.9123122E-2,-9.371332E-2,-3.6702856E-1,6.378299E-1,-6.1711916E-3,-3.7938276E-1,-4.927024E-1,6.088611E-1,-2.7928308E-1,-3.5250017E-1,-1.479547E-1,-4.4030595E-1,-5.1894504E-1,-5.2640057E-1,-4.2914858E-1,6.1384463E-1,-4.596385E-1,1.4051989E-1,-2.897176E-1,-4.7100666E-1,-2.9515293E-1,1.16005085E-1,4.0704396E-1,-1.8239039E-3,-2.72138E-1,4.266289E-1,2.3348115E-1,6.284367E-1,1.7218205E-1,-2.0680113E-1,-4.6243668E-1,5.27057E-1,1.9006536E-3,1.8029982E-1,-7.203544E-2,4.7218016E-1,-2.027525E-2,5.079893E-1,3.4777555E-1,2.903446E-1,-1.395201E-1,6.3812363E-1,2.8113046E-1,5.7464534E-1,3.4016842E-1,5.5068535E-1,3.8342378E-1,5.6350917E-1,6.154431E-1],"split_indices":[13,5,13,7,5,7,16,14,14,14,14,16,5,7,7,16,13,13,7,16,7,5,16,0,0,5,2,13,5,13,13,13,16,2,2,13,8,0,7,16,16,14,7,13,5,13,16,9,15,7,14,14,13,5,13,14,14,5,11,16,14,5,16,0,0,0,0,0,0,0,0,0,0,0,0,0,0,0,0,0,0,0,0,0,0,0,0,0,0,0,0,0,0,0,0,0,0,0,0,0,0,0,0,0,0,0,0,0,0,0,0,0,0,0,0,0,0,0,0,0,0,0,0,0,0],"split_type":[0,0,0,0,0,0,0,0,0,0,0,0,0,0,0,0,0,0,0,0,0,0,0,0,0,0,0,0,0,0,0,0,0,0,0,0,0,0,0,0,0,0,0,0,0,0,0,0,0,0,0,0,0,0,0,0,0,0,0,0,0,0,0,0,0,0,0,0,0,0,0,0,0,0,0,0,0,0,0,0,0,0,0,0,0,0,0,0,0,0,0,0,0,0,0,0,0,0,0,0,0,0,0,0,0,0,0,0,0,0,0,0,0,0,0,0,0,0,0,0,0,0,0,0,0],"sum_hessian":[2.1066562E4,1.2577138E4,8.489425E3,4.2101826E3,8.366955E3,3.8671177E3,4.6223076E3,1.2860582E3,2.9241243E3,3.1263362E3,5.240619E3,1.1233446E3,2.743773E3,7.062514E2,3.916056E3,7.8549664E2,5.0056158E2,2.0059727E3,9.181517E2,1.1792386E3,1.9470977E3,1.7828936E3,3.4577253E3,1.4010756E2,9.832371E2,2.5547273E3,1.8904584E2,2.1885596E2,4.8739545E2,8.508305E2,3.0652256E3,6.948242E2,9.067245E1,3.2592398E2,1.7463762E2,1.8084805E2,1.8251245E3,2.0370249E1,8.9778143E2,6.8563275E2,4.936059E2,1.00534625E3,9.4175134E2,1.1404855E3,6.424081E2,2.1637178E3,1.2940076E3,9.439871E0,1.306677E2,1.2694142E2,8.5629565E2,1.9396451E3,6.1508215E2,1.1650788E2,7.253796E1,1.7215344E2,4.670252E1,4.4292868E2,4.4466763E1,4.7447772E2,3.7635275E2,1.1655757E3,1.8996499E3,4.0020084E2,2.9462335E2,3.0306955E1,6.036549E1,1.7265027E2,1.532737E2,1.363813E2,3.825632E1,2.981012E1,1.5103793E2,9.9118646E2,8.339381E2,4.6801886E2,4.2976254E2,5.0726886E2,1.7836388E2,4.546043E1,4.4814545E2,5.837815E2,4.2156476E2,1.4159806E1,9.2759155E2,8.4735266E2,2.9313284E2,3.0257272E2,3.3983536E2,2.039509E3,1.2420883E2,1.6147148E1,1.2778605E3,4.9683533E0,4.471518E0,8.694618E1,4.3721508E1,5.7881313E1,6.906011E1,6.6178467E2,1.9451103E2,1.5016848E3,4.3796033E2,2.6829107E1,5.88253E2,6.3346504E1,5.316138E1,4.2231E0,6.831486E1,6.781802E1,1.0433542E2,3.602056E1,1.0681959E1,2.8294772E2,1.5998097E2,1.2420883E1,3.204588E1,4.64541E1,4.2802362E2,3.4157428E2,3.4778473E1,9.305726E2,2.3500311E2,5.5645557E2,1.3431943E3],"tree_param":{"num_deleted":"0","num_feature":"21","num_nodes":"125","size_leaf_vector":"1"}},{"base_weights":[-5.683048E-3,-7.188943E-1,7.4898094E-1,-2.4066506E-1,-1.1091127E0,3.609766E-1,1.2113442E0,-7.76572E-1,5.9276227E-2,-1.310599E0,-8.665214E-1,-1.8794736E-1,6.7568356E-1,4.5919237E-1,1.2700353E0,-9.838925E-1,-4.091117E-1,2.7957243E-1,-3.9196122E-1,-1.369386E0,-1.186044E0,6.5893924E-1,-9.3039393E-1,-1.0145366E0,-4.505839E-2,7.7898264E-1,-5.0454223E-1,9.3392384E-1,9.063333E-2,7.614411E-1,1.3288822E0,-8.283857E-1,-1.2975125E0,6.7879164E-1,-6.004593E-1,5.464554E-1,-5.994231E-2,6.8017477E-1,-4.4292334E-1,-1.3837235E0,-1.0883901E0,7.5312203E-1,-1.2518181E0,-1.2029022E0,-7.236406E-1,5.021244E-1,-1.0408422E0,-6.2150973E-1,1.068302E-1,9.683463E-1,5.1481885E-1,-1.2965956E-1,-1.0014784E0,1.0334427E0,-1.0279858E0,5.264037E-1,-6.067971E-3,3.0510312E-1,1.1764015E0,1.1912843E0,1.4637612E0,-1.6836134E-1,-3.0959126E-1,-4.1542837E-1,-3.1465125E-1,-2.1972328E-1,-2.3771165E-2,-1.12384215E-1,1.9846345E-1,-1.8900618E-1,8.977185E-2,-1.941881E-1,-1.4831462E-2,-4.297672E-1,-3.951703E-1,6.845008E-1,-3.8083193E-1,-3.3597788E-1,-4.0400153E-1,-4.2813042E-1,-3.0395406E-1,7.0137036E-1,-2.282342E-1,-2.0117E-1,-3.465249E-1,-1.1457419E-1,-3.7241125E-1,8.6762436E-2,-1.437397E-1,3.3361325E-1,1.9918628E-1,-5.9446372E-2,1.8172309E-1,5.598261E-1,-6.269685E-2,-1.6876386E-1,-3.9351758E-1,3.727304E-1,1.4866692E-1,1.5535529E-1,-4.2527807E-1,3.9465543E-2,-3.3085504E-1,1.5118435E-1,-1.8194911E-1,3.6925292E-1,-2.622654E-1,3.6339113E-1,-1.3186955E-2,4.3985984E-1,-3.749849E-1],"categories":[],"categories_nodes":[],"categories_segments":[],"categories_sizes":[],"default_left":[0,0,0,0,0,0,0,0,0,0,0,0,0,0,0,0,0,0,0,0,0,0,0,0,0,0,0,0,0,0,0,0,0,0,0,0,0,0,0,0,0,0,0,0,0,0,0,0,0,0,0,0,0,0,0,0,0,0,0,0,0,0,0,0,0,0,0,0,0,0,0,0,0,0,0,0,0,0,0,0,0,0,0,0,0,0,0,0,0,0,0,0,0,0,0,0,0,0,0,0,0,0,0,0,0,0,0,0,0,0,0],"id":1,"left_children":[1,3,5,7,9,11,13,15,17,19,21,23,25,27,29,31,33,35,37,39,41,-1,43,45,47,49,51,53,55,57,59,61,63,-1,65,67,69,-1,71,73,75,-1,77,79,81,-1,83,85,87,89,91,93,95,97,99,-1,101,103,105,107,109,-1,-1,-1,-1,-1,-1,-1,-1,-1,-1,-1,-1,-1,-1,-1,-1,-1,-1,-1,-1,-1,-1,-1,-1,-1,-1,-1,-1,-1,-1,-1,-1,-1,-1,-1,-1,-1,-1,-1,-1,-1,-1,-1,-1,-1,-1,-1,-1,-1,-1],"loss_changes":[1.090876E4,1.944251E3,1.7662212E3,7.5283997E2,2.7931787E2,9.253435E2,1.9775244E2,1.2763287E2,2.9868835E2,2.13125E1,5.1193384E2,2.3055763E2,4.1544104E2,5.7089302E1,1.2370557E2,5.129138E1,3.1214444E2,1.8296455E2,1.3459293E2,7.0410156E0,2.4915723E2,0E0,1.4301123E2,2.2088593E1,1.4591072E2,1.5611267E2,5.1024895E1,2.8925552E1,2.9790213E1,8.191748E1,6.754834E1,3.861615E1,6.2316284E0,0E0,3.901204E1,1.2008084E2,1.8231041E2,0E0,7.781592E1,4.6552734E0,6.8599014E1,0E0,1.0937622E1,4.5350098E1,1.671701E2,0E0,1.1304199E1,5.1137787E1,1.411172E2,7.8975586E1,8.500073E1,2.5352177E1,1.5321022E1,1.4708176E1,5.185331E0,0E0,2.6694668E1,3.8059776E1,2.6441833E1,4.5888916E1,1.4278564E1,0E0,0E0,0E0,0E0,0E0,0E0,0E0,0E0,0E0,0E0,0E0,0E0,0E0,0E0,0E0,0E0,0E0,0E0,0E0,0E0,0E0,0E0,0E0,0E0,0E0,0E0,0E0,0E0,0E0,0E0,0E0,0E0,0E0,0E0,0E0,0E0,0E0,0E0,0E0,0E0,0E0,0E0,0E0,0E0,0E0,0E0,0E0,0E0,0E0,0E0],"parents":[2147483647,0,0,1,1,2,2,3,3,4,4,5,5,6,6,7,7,8,8,9,9,10,10,11,11,12,12,13,13,14,14,15,15,16,16,17,17,18,18,19,19,20,20,22,22,23,23,24,24,25,25,26,26,27,27,28,28,29,29,30,30,31,31,32,32,34,34,35,35,36,36,38,38,39,39,40,40,42,42,43,43,44,44,46,46,47,47,48,48,49,49,50,50,51,51,52,52,53,53,54,54,56,56,57,57,58,58,59,59,60,60],"right_children":[2,4,6,8,10,12,14,16,18,20,22,24,26,28,30,32,34,36,38,40,42,-1,44,46,48,50,52,54,56,58,60,62,64,-1,66,68,70,-1,72,74,76,-1,78,80,82,-1,84,86,88,90,92,94,96,98,100,-1,102,104,106,108,110,-1,-1,-1,-1,-1,-1,-1,-1,-1,-1,-1,-1,-1,-1,-1,-1,-1,-1,-1,-1,-1,-1,-1,-1,-1,-1,-1,-1,-1,-1,-1,-1,-1,-1,-1,-1,-1,-1,-1,-1,-1,-1,-1,-1,-1,-1,-1,-1,-1,-1],"split_conditions":[3.9326462E-1,3.2097036E-1,1.1133145E0,-2.0920315E-1,2.0657246E0,-3.9969057E-1,5.03967E0,6.0607553E0,6.71685E-3,1.1385474E0,3E0,2.0657246E0,6.062765E-1,-5.34948E-1,-9.871287E-1,1.0042582E0,7E0,7E0,-7.692943E-2,3.0039456E-3,2E0,6.5893924E-1,-2.0920315E-1,4.2808613E-1,-1.1216518E0,-3.9229494E-1,-3.4091115E-1,1.8435025E0,1.1599994E0,1.5765706E0,1.6108013E0,7E0,-6.536481E-1,6.7879164E-1,7.023687E0,-1.3080921E0,-2.1959089E-1,6.8017477E-1,9.2097886E-2,-8.562327E-1,1.8402442E-1,7.5312203E-1,-1.8976855E-1,-4.9900404E-1,-7.276918E-2,5.021244E-1,-5.676251E-1,1.4879144E0,2.0684792E-1,2.1831112E-2,2.0657246E0,-2.4589178E-1,8.0599076E-1,5E0,-4.9800256E-1,5.264037E-1,6.918683E-1,1.6718274E0,1.9866852E0,5.4921526E-1,8.0599076E-1,-1.6836134E-1,-3.0959126E-1,-4.1542837E-1,-3.1465125E-1,-2.1972328E-1,-2.3771165E-2,-1.12384215E-1,1.9846345E-1,-1.8900618E-1,8.977185E-2,-1.941881E-1,-1.4831462E-2,-4.297672E-1,-3.951703E-1,6.845008E-1,-3.8083193E-1,-3.3597788E-1,-4.0400153E-1,-4.2813042E-1,-3.0395406E-1,7.0137036E-1,-2.282342E-1,-2.0117E-1,-3.465249E-1,-1.1457419E-1,-3.7241125E-1,8.6762436E-2,-1.437397E-1,3.3361325E-1,1.9918628E-1,-5.9446372E-2,1.8172309E-1,5.598261E-1,-6.269685E-2,-1.6876386E-1,-3.9351758E-1,3.727304E-1,1.4866692E-1,1.5535529E-1,-4.2527807E-1,3.9465543E-2,-3.3085504E-1,1.5118435E-1,-1.8194911E-1,3.6925292E-1,-2.622654E-1,3.6339113E-1,-1.3186955E-2,4.3985984E-1,-3.749849E-1],"split_indices":[13,5,13,7,16,7,16,16,14,15,16,16,5,5,7,14,16,8,7,3,15,0,7,13,2,5,14,12,13,13,13,8,1,0,16,13,13,0,13,13,3,0,14,13,7,0,14,14,5,14,16,7,5,16,14,0,5,12,14,5,5,0,0,0,0,0,0,0,0,0,0,0,0,0,0,0,0,0,0,0,0,0,0,0,0,0,0,0,0,0,0,0,0,0,0,0,0,0,0,0,0,0,0,0,0,0,0,0,0,0,0],"split_type":[0,0,0,0,0,0,0,0,0,0,0,0,0,0,0,0,0,0,0,0,0,0,0,0,0,0,0,0,0,0,0,0,0,0,0,0,0,0,0,0,0,0,0,0,0,0,0,0,0,0,0,0,0,0,0,0,0,0,0,0,0,0,0,0,0,0,0,0,0,0,0,0,0,0,0,0,0,0,0,0,0,0,0,0,0,0,0,0,0,0,0,0,0,0,0,0,0,0,0,0,0,0,0,0,0,0,0,0,0,0,0],"sum_hessian":[2.0265658E4,1.0419004E4,9.846653E3,4.682284E3,5.7367197E3,5.354807E3,4.4918467E3,1.6796515E3,3.0026326E3,3.1314585E3,2.6052612E3,1.9514374E3,3.4033696E3,3.2577075E2,4.1660757E3,1.0727372E3,6.069143E2,2.0178765E3,9.847561E2,2.1205955E3,1.01086304E3,5.2535767E1,2.5527253E3,2.8671838E2,1.664719E3,3.1297764E3,2.7359332E2,1.4170728E2,1.8406349E2,4.3349222E2,3.7325835E3,7.195791E2,3.5315808E2,3.9838066E1,5.6707623E2,1.1294432E3,8.884331E2,1.7699606E1,9.670565E2,2.0139126E3,1.0668297E2,1.7022879E1,9.9384015E2,1.0991663E3,1.4535592E3,2.1715345E0,2.8454684E2,3.4651703E2,1.3182019E3,1.8214321E3,1.3083441E3,1.5666673E2,1.169266E2,1.3531651E2,6.3907566E0,9.167247E0,1.7489626E2,2.0727936E2,2.2621286E2,1.8525355E3,1.8800481E3,3.1280994E2,4.067692E2,2.5805118E2,9.5106895E1,4.5219437E2,1.1488186E2,1.2520034E2,1.004243E3,3.4310974E2,5.4532336E2,6.360543E2,3.3100217E2,1.1492727E3,8.646399E2,4.847583E0,1.0183539E2,4.211072E2,5.72733E2,5.0081693E2,5.9834937E2,1.6679466E1,1.4368796E3,6.871112E1,2.1583572E2,2.5108206E2,9.543497E1,1.00569183E3,3.125101E2,1.2355151E3,5.85917E2,1.478466E2,1.1604976E3,5.128296E0,1.5153844E2,4.9586143E1,6.7340454E1,9.650885E1,3.8807663E1,1.2202077E0,5.170549E0,1.5617953E2,1.8716717E1,1.7052945E2,3.674991E1,2.2075192E2,5.4609394E0,1.8230096E3,2.9525913E1,1.8788197E3,1.2283692E0],"tree_param":{"num_deleted":"0","num_feature":"21","num_nodes":"111","size_leaf_vector":"1"}},{"base_weights":[-7.2707385E-3,-4.3309286E-1,7.703724E-1,-1.2940714E-1,-9.479508E-1,5.192654E-1,1.0620569E0,9.163999E-2,-6.1613363E-1,-7.096892E-1,-1.1155568E0,1.0273108E-1,7.328614E-1,1.0908184E0,8.800798E-2,-2.4658987E-1,3.0109173E-1,-8.8912505E-1,-3.6000943E-1,-4.411573E-1,-9.7152096E-1,-9.747461E-1,-1.2233939E0,5.9869146E-1,5.154674E-2,8.5819376E-1,3.1174722E-1,9.207397E-1,1.2163296E0,6.296826E-1,-5.822207E-1,-5.2096796E-1,9.1343194E-2,1.8606062E0,1.9630031E-1,-5.0333005E-1,-1.0001876E0,-8.969256E-1,-2.0359632E-1,-6.521025E-1,-5.4209385E-2,-1.1651711E0,-8.279646E-1,-1.0286683E0,-3.2074952E-1,-1.1713549E0,-3.9381522E-1,-3.196761E-1,2.886577E-1,4.777474E-1,8.237236E-1,6.4971346E-1,-5.0641637E-2,9.565999E-1,-9.301641E-2,4.3512648E-1,1.0740106E0,1.7140426E-1,1.0458394E0,-8.6926043E-1,4.6960205E-1,-4.0017918E-2,-2.2834507E-1,8.52281E-2,-1.4956857E-1,6.725594E-1,5.362638E-1,-1.1308221E-1,1.1990081E-1,-2.7747447E-2,-2.574803E-1,-1.7454667E-1,-3.236147E-1,-1.23265415E-1,-3.086485E-1,6.81183E-1,-7.237531E-2,-2.2516766E-1,1.707506E-2,7.91834E-1,-5.431479E-2,-3.8296136E-1,-2.999692E-1,-2.1050538E-1,-3.2909453E-1,-3.3946323E-1,-2.1762472E-1,-2.1086599E-1,3.9770488E-2,-2.821736E-1,-3.62874E-1,-1.3191433E-1,1.3093053E-1,5.5481064E-1,3.9013848E-2,1.018387E-1,2.6977456E-1,3.011049E-1,1.0616023E-1,5.3838706E-1,-4.2654842E-2,1.8605067E-1,3.1555283E-1,2.5119534E-1,-1.4033678E-1,2.5182396E-1,3.72076E-1,1.1531946E-1,-2.2906302E-1,3.5706905E-1,4.057063E-3,-3.206367E-1,9.486257E-2,3.0802664E-1,-9.04811E-2],"categories":[],"categories_nodes":[],"categories_segments":[],"categories_sizes":[],"default_left":[0,0,0,0,0,0,0,0,0,0,0,0,0,0,0,0,0,0,0,0,0,0,0,0,0,0,0,0,0,0,0,0,0,0,0,0,0,0,0,0,0,0,0,0,0,0,0,0,0,0,0,0,0,0,0,0,0,0,0,0,0,0,0,0,0,0,0,0,0,0,0,0,0,0,0,0,0,0,0,0,0,0,0,0,0,0,0,0,0,0,0,0,0,0,0,0,0,0,0,0,0,0,0,0,0,0,0,0,0,0,0,0,0,0,0],"id":2,"left_children":[1,3,5,7,9,11,13,15,17,19,21,23,25,27,29,31,33,35,37,39,41,43,45,-1,47,49,51,53,55,57,59,61,63,65,67,69,71,73,75,77,79,81,83,85,87,89,-1,91,93,-1,95,97,99,101,103,-1,105,107,109,111,113,-1,-1,-1,-1,-1,-1,-1,-1,-1,-1,-1,-1,-1,-1,-1,-1,-1,-1,-1,-1,-1,-1,-1,-1,-1,-1,-1,-1,-1,-1,-1,-1,-1,-1,-1,-1,-1,-1,-1,-1,-1,-1,-1,-1,-1,-1,-1,-1,-1,-1,-1,-1,-1,-1],"loss_changes":[6.241005E3,1.90404E3,4.8789038E2,8.243339E2,1.7963623E2,3.189331E2,8.630615E1,3.7337756E2,1.6698804E2,1.3094934E2,3.905591E1,1.1776697E2,1.24819336E2,6.2825928E1,3.2874916E1,1.8695233E2,5.315285E2,4.9097046E1,1.0363866E2,7.541072E1,2.5312805E1,4.038208E1,5.4213867E0,0E0,1.0444683E2,4.4903076E1,6.6800446E1,4.647876E1,5.5762207E1,9.356758E0,1.2648445E1,1.03473145E2,1.0294419E2,1.6976318E0,3.558207E2,3.7947166E1,2.8869385E1,1.7438416E1,8.9860916E1,4.1794876E1,1.1226932E2,6.085266E0,1.7788513E1,3.243799E1,1.5577966E1,7.2893066E0,0E0,4.217613E1,1.7898114E2,0E0,6.3554443E1,2.9192062E1,4.484915E1,3.884253E1,1.5910239E1,0E0,4.083899E1,5.2704377E0,3.8607082E0,7.9545994E0,4.323349E0,0E0,0E0,0E0,0E0,0E0,0E0,0E0,0E0,0E0,0E0,0E0,0E0,0E0,0E0,0E0,0E0,0E0,0E0,0E0,0E0,0E0,0E0,0E0,0E0,0E0,0E0,0E0,0E0,0E0,0E0,0E0,0E0,0E0,0E0,0E0,0E0,0E0,0E0,0E0,0E0,0E0,0E0,0E0,0E0,0E0,0E0,0E0,0E0,0E0,0E0,0E0,0E0,0E0,0E0],"parents":[2147483647,0,0,1,1,2,2,3,3,4,4,5,5,6,6,7,7,8,8,9,9,10,10,11,11,12,12,13,13,14,14,15,15,16,16,17,17,18,18,19,19,20,20,21,21,22,22,24,24,25,25,26,26,27,27,28,28,29,29,30,30,31,31,32,32,33,33,34,34,35,35,36,36,37,37,38,38,39,39,40,40,41,41,42,42,43,43,44,44,45,45,47,47,48,48,50,50,51,51,52,52,53,53,54,54,56,56,57,57,58,58,59,59,60,60],"right_children":[2,4,6,8,10,12,14,16,18,20,22,24,26,28,30,32,34,36,38,40,42,44,46,-1,48,50,52,54,56,58,60,62,64,66,68,70,72,74,76,78,80,82,84,86,88,90,-1,92,94,-1,96,98,100,102,104,-1,106,108,110,112,114,-1,-1,-1,-1,-1,-1,-1,-1,-1,-1,-1,-1,-1,-1,-1,-1,-1,-1,-1,-1,-1,-1,-1,-1,-1,-1,-1,-1,-1,-1,-1,-1,-1,-1,-1,-1,-1,-1,-1,-1,-1,-1,-1,-1,-1,-1,-1,-1,-1,-1,-1,-1,-1,-1],"split_conditions":[7.284786E-1,5.4921526E-1,1.3114473E0,4.2991617E-1,-2.8045413E-1,-3.9969057E-1,1.8435025E0,5.03967E0,9.2097886E-2,8.915826E-1,7.7746016E-1,7.696457E-1,-2.139698E-2,7.023687E0,3.6945912E-1,9.2097886E-2,6E0,6.566301E-1,-1.1850278E0,4.0826325E0,-1.0424078E0,8.984726E-1,5.6594455E-1,5.9869146E-1,6.0517683E0,7.696457E-1,7.9113984E-1,3.7803158E-1,8E0,1.9775815E0,-2.0920315E-1,6E0,5E0,-3.9969057E-1,6.0607553E0,6E0,-7.402517E-1,2E0,-1.0249435E0,3.0039456E-3,5E0,5.714808E-1,1.2624806E0,-1.1061835E-2,3.1701696E0,-1.2581447E-1,-3.9381522E-1,1.673186E0,7E0,4.777474E-1,8.226608E-1,7E0,7.696457E-1,-5.846611E-1,7E0,4.3512648E-1,1.8020095E0,2.6E1,-7.061317E-1,2.1689842E0,-1.3631842E0,-4.0017918E-2,-2.2834507E-1,8.52281E-2,-1.4956857E-1,6.725594E-1,5.362638E-1,-1.1308221E-1,1.1990081E-1,-2.7747447E-2,-2.574803E-1,-1.7454667E-1,-3.236147E-1,-1.23265415E-1,-3.086485E-1,6.81183E-1,-7.237531E-2,-2.2516766E-1,1.707506E-2,7.91834E-1,-5.431479E-2,-3.8296136E-1,-2.999692E-1,-2.1050538E-1,-3.2909453E-1,-3.3946323E-1,-2.1762472E-1,-2.1086599E-1,3.9770488E-2,-2.821736E-1,-3.62874E-1,-1.3191433E-1,1.3093053E-1,5.5481064E-1,3.9013848E-2,1.018387E-1,2.6977456E-1,3.011049E-1,1.0616023E-1,5.3838706E-1,-4.2654842E-2,1.8605067E-1,3.1555283E-1,2.5119534E-1,-1.4033678E-1,2.5182396E-1,3.72076E-1,1.1531946E-1,-2.2906302E-1,3.5706905E-1,4.057063E-3,-3.206367E-1,9.486257E-2,3.0802664E-1,-9.04811E-2],"split_indices":[13,5,13,14,14,7,12,16,13,5,5,13,5,16,14,13,16,14,7,16,13,7,14,0,15,13,11,5,16,13,7,8,16,7,16,8,5,6,7,3,16,7,5,13,16,4,0,1,15,0,13,0,13,7,0,0,13,18,5,13,4,0,0,0,0,0,0,0,0,0,0,0,0,0,0,0,0,0,0,0,0,0,0,0,0,0,0,0,0,0,0,0,0,0,0,0,0,0,0,0,0,0,0,0,0,0,0,0,0,0,0,0,0,0,0],"split_type":[0,0,0,0,0,0,0,0,0,0,0,0,0,0,0,0,0,0,0,0,0,0,0,0,0,0,0,0,0,0,0,0,0,0,0,0,0,0,0,0,0,0,0,0,0,0,0,0,0,0,0,0,0,0,0,0,0,0,0,0,0,0,0,0,0,0,0,0,0,0,0,0,0,0,0,0,0,0,0,0,0,0,0,0,0,0,0,0,0,0,0,0,0,0,0,0,0,0,0,0,0,0,0,0,0,0,0,0,0,0,0,0,0,0,0],"sum_hessian":[1.8845154E4,1.217746E4,6.667695E3,7.6603193E3,4.51714E3,3.58457E3,3.0831248E3,5.268458E3,2.3918616E3,1.867548E3,2.6495923E3,1.2155679E3,2.3690022E3,2.9945815E3,8.854325E1,2.0147665E3,3.2536914E3,1.1566104E3,1.2352512E3,9.233031E2,9.442449E2,1.1534667E3,1.4961255E3,3.1003471E1,1.1845643E3,1.8248506E3,5.4415155E2,1.2750767E3,1.7195049E3,4.9001244E1,3.9542007E1,1.1116459E3,9.0312067E2,2.0381056E2,3.0498809E3,2.5977368E2,8.9683673E2,2.7760107E2,9.5765015E2,5.971051E2,3.2619794E2,3.9895645E2,5.4528845E2,1.0650779E3,8.838883E1,9.542823E2,5.418432E2,4.6157327E2,7.229911E2,7.979636E1,1.7450542E3,2.811533E2,2.629983E2,1.2315681E3,4.3508614E1,6.466606E2,1.0728444E3,2.3992361E1,2.5008884E1,3.1200922E1,8.3410845E0,4.2591492E2,6.857309E2,6.810931E2,2.2202756E2,2.800159E1,1.7580896E2,7.984416E2,2.2514392E3,1.20989494E2,1.3878418E2,1.430631E2,7.537736E2,6.013348E1,2.1746759E2,1.3466941E1,9.441832E2,5.2424805E2,7.285708E1,1.3778538E1,3.124194E2,2.3433241E2,1.6462404E2,3.7354852E2,1.7173991E2,7.932451E2,2.7183276E2,4.766106E1,4.0727776E1,1.3924182E2,8.1504047E2,3.9869577E2,6.2877495E1,6.571423E1,6.5727686E2,2.3617952E2,1.5088748E3,1.2691332E2,1.5423997E2,1.1551019E1,2.5144727E2,2.7338553E2,9.5818256E2,1.2139466E1,3.1369148E1,4.4745584E2,6.253885E2,2.0020313E1,3.9720469E0,2.1805908E1,3.2029772E0,2.6790232E1,4.4106894E0,4.6502056E0,3.6908793E0],"tree_param":{"num_deleted":"0","num_feature":"21","num_nodes":"115","size_leaf_vector":"1"}},{"base_weights":[-6.9347746E-3,-5.124327E-1,3.9441773E-1,-9.452825E-1,-2.9017922E-1,1.1711369E-1,7.259583E-1,-1.015987E0,-7.43932E-1,2.052832E0,-3.259005E-1,-1.3659371E-1,4.7820666E-1,2.9736972E-1,8.381253E-1,-1.131234E0,-9.3996525E-1,6.7546713E-1,-7.730782E-1,7.1456724E-1,5.2562267E-1,-4.0711625E-3,-5.581571E-1,-6.9810027E-1,-3.885743E-2,1.6989412E0,4.1293976E-1,-8.550095E-2,5.02085E-1,1.4131471E0,7.7252424E-1,-1.6639797E-1,-1.1511792E0,-1.0439484E0,-8.32419E-1,-5.3418976E-1,-1.0172577E0,-3.3096668E-1,2.2773615E-1,-6.6970307E-1,-3.2237194E-2,-8.873989E-1,-4.5529294E-1,6.0357666E-1,-7.466535E-2,5.7304204E-1,4.636282E-1,-6.648445E-1,5.0422907E-1,-6.6983587E-1,5.7613764E-2,6.6001475E-1,7.276885E-2,4.7914386E-1,4.070349E-1,4.421595E-1,9.690895E-1,4.2024088E-1,-1.186846E-1,-3.5409626E-1,-2.9717827E-1,5.141536E-2,-3.152342E-1,9.020701E-1,-2.6202264E-1,-7.4014395E-2,-2.5805387E-1,-3.2840407E-1,-2.225446E-1,-2.5240485E-2,-1.9194785E-1,5.673922E-1,5.21686E-2,-1.0695373E-1,-2.3861621E-1,1.5862495E-1,-1.1341414E-1,3.8394755E-1,-2.7049458E-1,6.719036E-1,-1.8824466E-1,6.938352E-2,-7.238087E-2,-1.3748467E-1,-3.2291558E-1,1.816618E-1,-2.419944E-2,-1.0186323E-1,-3.406146E-1,9.1744795E-2,-7.2639376E-2,2.522547E-1,1.1128952E-1,-2.2830957E-1,7.875571E-2,2.0341726E-1,3.1973973E-2,4.0721837E-1,2.1868914E-1],"categories":[],"categories_nodes":[],"categories_segments":[],"categories_sizes":[],"default_left":[0,0,0,0,0,0,0,0,0,0,0,0,0,0,0,0,0,0,0,0,0,0,0,0,0,0,0,0,0,0,0,0,0,0,0,0,0,0,0,0,0,0,0,0,0,0,0,0,0,0,0,0,0,0,0,0,0,0,0,0,0,0,0,0,0,0,0,0,0,0,0,0,0,0,0,0,0,0,0,0,0,0,0,0,0,0,0,0,0,0,0,0,0,0,0,0,0,0,0],"id":3,"left_children":[1,3,5,7,9,11,13,15,17,19,21,23,25,27,29,31,33,-1,35,-1,-1,37,39,41,43,45,47,49,51,53,55,57,59,61,63,65,67,69,71,73,75,77,79,-1,81,-1,-1,83,85,87,89,91,93,-1,-1,95,97,-1,-1,-1,-1,-1,-1,-1,-1,-1,-1,-1,-1,-1,-1,-1,-1,-1,-1,-1,-1,-1,-1,-1,-1,-1,-1,-1,-1,-1,-1,-1,-1,-1,-1,-1,-1,-1,-1,-1,-1,-1,-1],"loss_changes":[3.5369883E3,7.4199927E2,8.933544E2,3.6504395E1,4.274744E2,4.8496576E2,2.1252002E2,1.5883789E1,6.1452637E1,3.4190369E0,3.7551117E2,1.7062221E2,1.7334195E2,7.212085E1,1.3121143E2,1.4508728E1,1.2230835E1,0E0,3.9010345E1,0E0,0E0,1.5972452E2,1.7115839E2,2.0782425E1,1.9471988E2,6.321106E-1,2.0448642E2,2.6903267E1,4.0589493E1,1.5452881E0,2.0415063E2,6.5319166E0,2.3323364E0,5.0927734E0,9.402469E1,3.2106087E1,6.3154297E0,6.661779E1,1.1013498E2,9.447595E1,9.945648E1,9.1203E0,9.606411E1,0E0,1.328404E2,0E0,0E0,1.3316811E1,1.1343222E2,9.344673E0,1.9340376E1,2.2584808E1,2.5879612E1,0E0,0E0,9.3105804E1,1.8309973E2,0E0,0E0,0E0,0E0,0E0,0E0,0E0,0E0,0E0,0E0,0E0,0E0,0E0,0E0,0E0,0E0,0E0,0E0,0E0,0E0,0E0,0E0,0E0,0E0,0E0,0E0,0E0,0E0,0E0,0E0,0E0,0E0,0E0,0E0,0E0,0E0,0E0,0E0,0E0,0E0,0E0,0E0],"parents":[2147483647,0,0,1,1,2,2,3,3,4,4,5,5,6,6,7,7,8,8,9,9,10,10,11,11,12,12,13,13,14,14,15,15,16,16,18,18,21,21,22,22,23,23,24,24,25,25,26,26,27,27,28,28,29,29,30,30,31,31,32,32,33,33,34,34,35,35,36,36,37,37,38,38,39,39,40,40,41,41,42,42,44,44,47,47,48,48,49,49,50,50,51,51,52,52,55,55,56,56],"right_children":[2,4,6,8,10,12,14,16,18,20,22,24,26,28,30,32,34,-1,36,-1,-1,38,40,42,44,46,48,50,52,54,56,58,60,62,64,66,68,70,72,74,76,78,80,-1,82,-1,-1,84,86,88,90,92,94,-1,-1,96,98,-1,-1,-1,-1,-1,-1,-1,-1,-1,-1,-1,-1,-1,-1,-1,-1,-1,-1,-1,-1,-1,-1,-1,-1,-1,-1,-1,-1,-1,-1,-1,-1,-1,-1,-1,-1,-1,-1,-1,-1,-1,-1],"split_conditions":[2.4905376E-1,2.0657246E0,9.7943497E-1,3.8108477E-1,3E0,1.1386617E-1,6.0607553E0,-8.562327E-1,5.274986E-1,3.2097036E-1,-2.139698E-2,2.0657246E0,2.7347603E-1,-3.9969057E-1,7E0,-1.5953948E0,-5.846611E-1,6.7546713E-1,7.7746016E-1,7.1456724E-1,5.2562267E-1,-4.6983812E-2,1.0894175E0,1.5286248E0,3E0,5.827885E-1,2.8896794E-1,3.1701696E0,3.5664245E-2,1.1133145E0,7.023687E0,3E0,5.918628E-2,-1.9905759E0,-4.190144E-1,1E1,1.5286248E0,7E0,1.0035342E-1,-5.525108E-1,7E0,2.8170347E-1,2E0,6.0357666E-1,-3.7113968E-1,5.7304204E-1,4.636282E-1,6.509348E-1,1.7373196E0,1.7E1,6E0,6E0,2.0657246E0,4.7914386E-1,4.070349E-1,-1.293115E-1,8E0,4.2024088E-1,-1.186846E-1,-3.5409626E-1,-2.9717827E-1,5.141536E-2,-3.152342E-1,9.020701E-1,-2.6202264E-1,-7.4014395E-2,-2.5805387E-1,-3.2840407E-1,-2.225446E-1,-2.5240485E-2,-1.9194785E-1,5.673922E-1,5.21686E-2,-1.0695373E-1,-2.3861621E-1,1.5862495E-1,-1.1341414E-1,3.8394755E-1,-2.7049458E-1,6.719036E-1,-1.8824466E-1,6.938352E-2,-7.238087E-2,-1.3748467E-1,-3.2291558E-1,1.816618E-1,-2.419944E-2,-1.0186323E-1,-3.406146E-1,9.1744795E-2,-7.2639376E-2,2.522547E-1,1.1128952E-1,-2.2830957E-1,7.875571E-2,2.0341726E-1,3.1973973E-2,4.0721837E-1,2.1868914E-1],"split_indices":[13,16,13,7,16,7,16,13,7,5,5,16,7,7,16,14,7,0,5,0,0,7,7,16,16,13,7,16,5,13,16,18,11,12,7,9,16,8,7,14,9,13,16,0,14,0,0,10,10,0,16,16,16,0,0,14,16,0,0,0,0,0,0,0,0,0,0,0,0,0,0,0,0,0,0,0,0,0,0,0,0,0,0,0,0,0,0,0,0,0,0,0,0,0,0,0,0,0,0],"split_type":[0,0,0,0,0,0,0,0,0,0,0,0,0,0,0,0,0,0,0,0,0,0,0,0,0,0,0,0,0,0,0,0,0,0,0,0,0,0,0,0,0,0,0,0,0,0,0,0,0,0,0,0,0,0,0,0,0,0,0,0,0,0,0,0,0,0,0,0,0,0,0,0,0,0,0,0,0,0,0,0,0,0,0,0,0,0,0,0,0,0,0,0,0,0,0,0,0,0,0],"sum_hessian":[1.743165E4,7.714751E3,9.716898E3,2.6162397E3,5.098511E3,5.291982E3,4.424917E3,1.9333097E3,6.8293005E2,7.571605E1,5.022795E3,3.1085244E3,2.1834575E3,9.18602E2,3.506315E3,7.628971E2,1.1704126E3,5.846133E0,6.770839E2,3.2852413E1,4.286364E1,2.105835E3,2.9169602E3,4.5994473E2,2.6485798E3,1.0954407E2,2.0739136E3,3.2024435E2,5.983576E2,3.5695E2,3.149365E3,1.5640438E1,7.4725665E2,5.9063715E2,5.797755E2,3.438613E2,3.3322263E2,8.7353906E2,1.2322958E3,2.4063147E3,5.1064542E2,2.5695862E2,2.0298611E2,4.4505215E1,2.6040745E3,4.129254E1,6.8251526E1,1.6145486E2,1.9124586E3,6.2279163E1,2.5796518E2,4.370467E2,1.6131093E2,7.729306E1,2.7965695E2,1.176047E3,1.9733179E3,1.3434924E0,1.4296947E1,6.2710443E2,1.2015223E2,3.1671968E0,5.874699E2,5.360137E0,5.7441534E2,1.8365837E2,1.6020294E2,2.5778824E2,7.543437E1,4.8623007E2,3.87309E2,3.7562534E1,1.1947333E3,6.902151E2,1.7160996E3,1.9453453E2,3.161109E2,1.0983415E0,2.5586028E2,1.1469371E1,1.9151674E2,9.179706E2,1.686104E3,1.0890591E2,5.2548954E1,1.6300758E3,2.8238284E2,3.7443443E1,2.4835722E1,1.411043E2,1.16860886E2,2.676755E2,1.6937119E2,2.9346357E1,1.3196457E2,6.899919E2,4.8605518E2,7.5223425E2,1.2210836E3],"tree_param":{"num_deleted":"0","num_feature":"21","num_nodes":"99","size_leaf_vector":"1"}},{"base_weights":[-6.0656145E-3,4.3048424E-1,-3.1476223E-1,2.6235956E-1,8.4944016E-1,-9.687417E-2,-6.7257524E-1,4.5407292E-1,-2.1035045E-3,1.378998E0,4.9238804E-1,1.8326852E-1,-3.0375245E-1,-4.189703E-1,-8.512044E-1,6.73869E-1,2.419746E-1,-1.7592399E-1,3.3861068E-1,1.65294E0,1.2341627E0,9.59965E-3,8.3085525E-1,6.872217E-2,5.875842E-1,-6.3023674E-1,-1.6960528E-1,-2.5180072E-1,-8.4064674E-1,-8.777039E-1,4.512049E-2,3.9310253E-1,1.4307128E0,1.4299227E-2,7.018346E-1,1.1783148E-1,-3.6945793E-1,-3.1329635E-1,4.7255346E-1,4.6964097E-1,5.81657E-1,3.9814416E-1,3.57875E-1,3.6153823E-1,-2.5997004E-1,5.5852985E-1,9.6487486E-1,-1.550676E-1,2.2836466E-1,1.6919861E0,1.8904111E-1,-1.7784145E-1,-8.3592546E-1,2.0574536E0,-2.2424361E-1,-3.4835133E-1,3.218359E-1,-6.693633E-1,-9.659565E-1,-9.1645443E-1,-4.7038364E-1,6.5010697E-1,-6.9333905E-1,-1.0501524E-1,1.4290321E-1,4.678092E-1,3.7347376E-1,9.376713E-2,-9.050947E-2,1.7912832E-1,2.8949445E-1,-4.6355173E-2,5.216168E-1,-2.2627221E-2,-1.7782812E-1,1.1944817E-2,-1.8793522E-1,2.2310232E-1,5.66858E-2,1.2735969E-1,-3.437349E-1,-1.2365296E-1,1.6235174E-1,1.957556E-1,-2.714197E-1,3.1367067E-1,1.7208378E-1,6.508878E-2,-1.1377085E-1,-2.1737993E-1,8.194559E-2,5.8823436E-1,4.4736353E-1,-1.5732013E-1,1.2554073E-1,-1.4373559E-1,1.2292907E-1,-2.0829622E-1,-3.40361E-1,7.219273E-1,5.074609E-1,-2.705948E-1,-4.354898E-2,-3.2033038E-1,-8.673598E-2,6.988433E-1,-4.2831898E-2,-2.2225197E-1,-1.7308695E-2,-3.18481E-1,-2.0993495E-1,-2.3554148E-1,-3.0266744E-1,8.831182E-1,-2.2609884E-1,4.0116224E-1,-1.1091441E-1,-2.6830325E-1,1.6337645E-1],"categories":[],"categories_nodes":[],"categories_segments":[],"categories_sizes":[],"default_left":[0,0,0,0,0,0,0,0,0,0,0,0,0,0,0,0,0,0,0,0,0,0,0,0,0,0,0,0,0,0,0,0,0,0,0,0,0,0,0,0,0,0,0,0,0,0,0,0,0,0,0,0,0,0,0,0,0,0,0,0,0,0,0,0,0,0,0,0,0,0,0,0,0,0,0,0,0,0,0,0,0,0,0,0,0,0,0,0,0,0,0,0,0,0,0,0,0,0,0,0,0,0,0,0,0,0,0,0,0,0,0,0,0,0,0,0,0,0,0],"id":4,"left_children":[1,3,5,7,9,11,13,15,17,19,21,23,25,27,29,31,33,35,37,39,41,43,45,47,49,51,53,55,57,59,61,63,65,67,69,71,73,75,77,-1,-1,-1,-1,79,81,83,85,87,89,91,93,95,97,99,101,103,105,107,109,111,113,115,117,-1,-1,-1,-1,-1,-1,-1,-1,-1,-1,-1,-1,-1,-1,-1,-1,-1,-1,-1,-1,-1,-1,-1,-1,-1,-1,-1,-1,-1,-1,-1,-1,-1,-1,-1,-1,-1,-1,-1,-1,-1,-1,-1,-1,-1,-1,-1,-1,-1,-1,-1,-1,-1,-1,-1,-1],"loss_changes":[2.1825044E3,4.7229858E2,7.395611E2,2.4279672E2,3.6248218E2,3.418478E2,1.6229138E2,1.2926056E2,1.1930699E2,2.8627197E1,1.8770618E2,1.1600958E2,1.4848376E2,1.0452164E2,5.005237E1,2.8903137E2,1.4807797E2,7.588223E1,5.95728E1,3.576538E0,3.7109375E-1,4.510584E1,2.410736E1,6.983494E1,2.4310843E2,9.175696E1,2.932354E2,5.9118645E1,8.397461E0,3.1849976E1,2.78884E1,6.174536E1,6.86438E0,8.935341E1,1.2332825E1,2.3448557E2,5.277162E1,1.2918097E1,4.3299065E1,0E0,0E0,0E0,0E0,2.0065865E1,3.3054596E1,3.1548279E1,1.3645691E1,6.797048E1,4.8883545E1,4.983917E0,6.6924515E1,5.5071747E1,2.791095E1,3.2992554E0,1.2578333E2,3.856981E1,1.4398372E2,7.8829727E0,5.394821E0,2.1863892E1,1.7603603E2,2.4511166E1,7.4892616E0,0E0,0E0,0E0,0E0,0E0,0E0,0E0,0E0,0E0,0E0,0E0,0E0,0E0,0E0,0E0,0E0,0E0,0E0,0E0,0E0,0E0,0E0,0E0,0E0,0E0,0E0,0E0,0E0,0E0,0E0,0E0,0E0,0E0,0E0,0E0,0E0,0E0,0E0,0E0,0E0,0E0,0E0,0E0,0E0,0E0,0E0,0E0,0E0,0E0,0E0,0E0,0E0,0E0,0E0,0E0,0E0],"parents":[2147483647,0,0,1,1,2,2,3,3,4,4,5,5,6,6,7,7,8,8,9,9,10,10,11,11,12,12,13,13,14,14,15,15,16,16,17,17,18,18,19,19,20,20,21,21,22,22,23,23,24,24,25,25,26,26,27,27,28,28,29,29,30,30,31,31,32,32,33,33,34,34,35,35,36,36,37,37,38,38,43,43,44,44,45,45,46,46,47,47,48,48,49,49,50,50,51,51,52,52,53,53,54,54,55,55,56,56,57,57,58,58,59,59,60,60,61,61,62,62],"right_children":[2,4,6,8,10,12,14,16,18,20,22,24,26,28,30,32,34,36,38,40,42,44,46,48,50,52,54,56,58,60,62,64,66,68,70,72,74,76,78,-1,-1,-1,-1,80,82,84,86,88,90,92,94,96,98,100,102,104,106,108,110,112,114,116,118,-1,-1,-1,-1,-1,-1,-1,-1,-1,-1,-1,-1,-1,-1,-1,-1,-1,-1,-1,-1,-1,-1,-1,-1,-1,-1,-1,-1,-1,-1,-1,-1,-1,-1,-1,-1,-1,-1,-1,-1,-1,-1,-1,-1,-1,-1,-1,-1,-1,-1,-1,-1,-1,-1,-1,-1],"split_conditions":[-3.9229494E-1,7.023687E0,5.7774585E-1,6.71685E-3,8E0,-3.257969E-1,-3.8625395E-1,7E0,1.1386617E-1,9.7943497E-1,1.3114473E0,3.0039456E-3,-8.2563466E-1,1.0912969E0,7.023687E0,6.0607553E0,1.1133145E0,7E0,-2.551018E-1,2.9388782E-1,1.3114473E0,7E0,1.7169724E0,9.2097886E-2,2E-1,5E0,-5.7124805E-1,3.0039456E-3,1.2910112E0,3.0039456E-3,7E0,-3.6188516E-1,9.6482253E-1,8E0,5.198986E-1,6.0517683E0,8E0,5E0,7E0,4.6964097E-1,5.81657E-1,3.9814416E-1,3.57875E-1,1.6541713E0,1.2587245E0,1.7241739E0,3.0900207E-1,7E0,1.5286248E0,2.9979476E-1,2.0805852E-1,5.03967E0,1.0798295E0,4.7688034E-1,-5.69348E-1,-1.7676537E0,2E-1,3.0039456E-3,1.0634333E0,7.7746016E-1,2E-1,6.062765E-1,1.5112386E0,-1.0501524E-1,1.4290321E-1,4.678092E-1,3.7347376E-1,9.376713E-2,-9.050947E-2,1.7912832E-1,2.8949445E-1,-4.6355173E-2,5.216168E-1,-2.2627221E-2,-1.7782812E-1,1.1944817E-2,-1.8793522E-1,2.2310232E-1,5.66858E-2,1.2735969E-1,-3.437349E-1,-1.2365296E-1,1.6235174E-1,1.957556E-1,-2.714197E-1,3.1367067E-1,1.7208378E-1,6.508878E-2,-1.1377085E-1,-2.1737993E-1,8.194559E-2,5.8823436E-1,4.4736353E-1,-1.5732013E-1,1.2554073E-1,-1.4373559E-1,1.2292907E-1,-2.0829622E-1,-3.40361E-1,7.219273E-1,5.074609E-1,-2.705948E-1,-4.354898E-2,-3.2033038E-1,-8.673598E-2,6.988433E-1,-4.2831898E-2,-2.2225197E-1,-1.7308695E-2,-3.18481E-1,-2.0993495E-1,-2.3554148E-1,-3.0266744E-1,8.831182E-1,-2.2609884E-1,4.0116224E-1,-1.1091441E-1,-2.6830325E-1,1.6337645E-1],"split_indices":[5,16,5,14,16,14,14,16,7,13,13,3,10,5,16,16,13,15,12,14,13,9,13,13,3,0,10,3,5,3,8,13,13,9,2,15,9,8,16,0,0,0,0,14,7,12,14,9,16,13,3,16,14,13,10,13,3,3,1,5,3,5,13,0,0,0,0,0,0,0,0,0,0,0,0,0,0,0,0,0,0,0,0,0,0,0,0,0,0,0,0,0,0,0,0,0,0,0,0,0,0,0,0,0,0,0,0,0,0,0,0,0,0,0,0,0,0,0,0],"split_type":[0,0,0,0,0,0,0,0,0,0,0,0,0,0,0,0,0,0,0,0,0,0,0,0,0,0,0,0,0,0,0,0,0,0,0,0,0,0,0,0,0,0,0,0,0,0,0,0,0,0,0,0,0,0,0,0,0,0,0,0,0,0,0,0,0,0,0,0,0,0,0,0,0,0,0,0,0,0,0,0,0,0,0,0,0,0,0,0,0,0,0,0,0,0,0,0,0,0,0,0,0,0,0,0,0,0,0,0,0,0,0,0,0,0,0,0,0,0,0],"sum_hessian":[1.6193309E4,6.707443E3,9.485866E3,4.7877656E3,1.9196772E3,5.896499E3,3.589367E3,2.7752366E3,2.0125289E3,7.719323E2,1.147745E3,2.5047817E3,3.3917175E3,1.4847583E3,2.1046086E3,1.3618173E3,1.4134194E3,1.3329752E3,6.795537E2,2.6337372E2,5.0855862E2,4.7344833E2,6.7429663E2,1.9527263E3,5.5205536E2,9.8667426E2,2.4050435E3,1.0643888E3,4.2036957E2,2.0441935E3,6.041502E1,9.94432E2,3.6738525E2,9.4605927E2,4.6736014E2,5.295655E2,8.034097E2,1.155971E2,5.6395667E2,2.0663368E2,5.674003E1,1.466892E2,3.6186942E2,2.0520299E2,2.6824536E2,2.2409904E2,4.5019757E2,8.130319E2,1.1396943E3,1.4553055E2,4.065248E2,3.0897464E2,6.776996E2,5.6714245E1,2.348329E3,9.113836E2,1.5300519E2,1.8028423E2,2.4008534E2,1.8654716E3,1.7872197E2,3.327443E1,2.7140589E1,9.9844765E1,8.945872E2,2.1270924E2,1.5467603E2,4.8669623E2,4.59363E2,3.3663745E2,1.3072266E2,4.5416028E2,7.540518E1,3.4736032E2,4.560494E2,5.4742447E1,6.0854652E1,2.8749277E2,2.7646387E2,1.9766069E2,7.542295E0,2.2582677E2,4.2418587E1,2.1109404E2,1.3004999E1,3.7183743E2,7.836012E1,3.057091E2,5.0732278E2,5.0477505E1,1.0892169E3,5.8476555E1,8.705399E1,9.860664E1,3.0791815E2,2.0437302E2,1.0460162E2,4.6195877E2,2.157408E2,2.6175032E1,3.0539211E1,2.4429053E2,2.1040386E3,6.8033295E1,8.433503E2,2.7999872E1,1.2500531E2,1.6123224E2,1.9051996E1,1.7442062E2,6.566471E1,7.745867E2,1.0908849E3,1.297341E1,1.6574857E2,1.9694277E1,1.3580153E1,2.3588085E1,3.5525036E0],"tree_param":{"num_deleted":"0","num_feature":"21","num_nodes":"119","size_leaf_vector":"1"}},{"base_weights":[-3.9316174E-3,-2.0324457E-1,4.601218E-1,-6.5395015E-1,-6.730697E-2,3.2995826E-1,8.116576E-1,-8.1191176E-1,-4.8745868E-1,4.9650466E-1,-9.663253E-2,1.5629354E0,2.8454173E-1,8.415652E-1,3.3824112E-2,-9.325302E-1,-7.063589E-1,6.8146324E-1,-5.553433E-1,-2.508803E-1,1.5977482E-1,5.517768E-1,4.305282E-1,1.1023056E-1,5.0774294E-1,7.50683E-1,1.0034103E0,-1.0845016E0,2.7263945E-1,-8.367583E-1,-1.0884576E0,-7.252566E-1,4.787703E-1,-7.760181E-1,-3.7164333E-1,-6.6034776E-1,-1.577305E-1,1.8050749E0,9.7918496E-2,1.6274107E-1,-7.5225264E-1,3.831699E-1,4.528631E-1,4.8808E-1,8.264824E-1,1.0132574E0,-2.4431162E-1,-1.4459482E0,-1.5730733E-2,7.226019E-1,-3.8130984E-2,-2.95946E-1,-1.8475991E-1,-3.3204877E-1,-2.1683142E-1,-2.6641884E-1,-1.7022888E-1,6.257813E-1,-1.9851433E-1,-2.4577987E-1,-1.02856204E-1,7.8863263E-1,-1.2166479E-1,-1.3436545E-1,-2.7327177E-1,1.4501231E-2,-9.624893E-2,4.7221377E-1,6.936629E-1,-2.0463635E-1,5.3664383E-2,3.0513644E-2,3.9633816E-1,-2.8442758E-1,3.9348874E-2,1.6783108E-1,1.9903528E-2,2.6783204E-1,7.4359134E-2,2.5119248E-1,-1.7319957E-2,3.0594268E-1,-1.4241263E-1,-4.857336E-1,-1.5445212E-1,-9.886219E-2,8.907114E-2,2.5918755E-1,-9.539499E-2,8.244859E-2,-2.0907007E-1],"categories":[],"categories_nodes":[],"categories_segments":[],"categories_sizes":[],"default_left":[0,0,0,0,0,0,0,0,0,0,0,0,0,0,0,0,0,0,0,0,0,0,0,0,0,0,0,0,0,0,0,0,0,0,0,0,0,0,0,0,0,0,0,0,0,0,0,0,0,0,0,0,0,0,0,0,0,0,0,0,0,0,0,0,0,0,0,0,0,0,0,0,0,0,0,0,0,0,0,0,0,0,0,0,0,0,0,0,0,0,0],"id":5,"left_children":[1,3,5,7,9,11,13,15,17,-1,19,21,23,25,27,29,31,-1,33,35,37,-1,-1,39,41,43,45,47,49,51,53,55,57,59,61,63,65,67,69,71,73,-1,75,77,79,81,-1,83,85,87,89,-1,-1,-1,-1,-1,-1,-1,-1,-1,-1,-1,-1,-1,-1,-1,-1,-1,-1,-1,-1,-1,-1,-1,-1,-1,-1,-1,-1,-1,-1,-1,-1,-1,-1,-1,-1,-1,-1,-1,-1],"loss_changes":[1.399073E3,6.482669E2,2.0769135E2,6.40863E1,4.108271E2,1.8537936E2,2.8524963E1,1.5340637E1,2.253031E2,0E0,3.1626608E2,1.5171814E0,1.2451346E2,1.663147E1,1.2711444E1,7.800659E0,1.5449158E1,0E0,4.707138E1,1.9032639E2,3.0553168E2,0E0,0E0,8.160048E1,5.8699646E1,1.474176E1,8.379883E0,3.2150211E0,5.4960575E0,1.14878845E1,6.689453E-1,1.6560791E1,2.1883453E1,9.644318E0,6.6120895E1,4.8832733E1,1.3676318E2,9.105774E0,1.8302075E2,1.198089E2,1.8017403E1,0E0,5.400003E1,1.6584126E1,5.6864624E0,4.5806885E0,0E0,1.7448807E-1,4.0483677E-1,2.632019E0,5.156262E0,0E0,0E0,0E0,0E0,0E0,0E0,0E0,0E0,0E0,0E0,0E0,0E0,0E0,0E0,0E0,0E0,0E0,0E0,0E0,0E0,0E0,0E0,0E0,0E0,0E0,0E0,0E0,0E0,0E0,0E0,0E0,0E0,0E0,0E0,0E0,0E0,0E0,0E0,0E0,0E0],"parents":[2147483647,0,0,1,1,2,2,3,3,4,4,5,5,6,6,7,7,8,8,10,10,11,11,12,12,13,13,14,14,15,15,16,16,18,18,19,19,20,20,23,23,24,24,25,25,26,26,27,27,28,28,29,29,30,30,31,31,32,32,33,33,34,34,35,35,36,36,37,37,38,38,39,39,40,40,42,42,43,43,44,44,45,45,47,47,48,48,49,49,50,50],"right_children":[2,4,6,8,10,12,14,16,18,-1,20,22,24,26,28,30,32,-1,34,36,38,-1,-1,40,42,44,46,48,50,52,54,56,58,60,62,64,66,68,70,72,74,-1,76,78,80,82,-1,84,86,88,90,-1,-1,-1,-1,-1,-1,-1,-1,-1,-1,-1,-1,-1,-1,-1,-1,-1,-1,-1,-1,-1,-1,-1,-1,-1,-1,-1,-1,-1,-1,-1,-1,-1,-1,-1,-1,-1,-1,-1,-1],"split_conditions":[8.226608E-1,2.0657246E0,1.6108013E0,1.1385474E0,3E0,8.672341E-1,1.8435025E0,-8.562327E-1,2E0,4.9650466E-1,3.8108477E-1,-3.9969057E-1,1.1386617E-1,1.992697E0,-1.5443113E0,8E0,1.6475723E0,6.8146324E-1,-2.0920315E-1,-5.7226074E-1,5.331599E-1,5.517768E-1,4.305282E-1,1.0035342E-1,2.7347603E-1,-5.846611E-1,6.918683E-1,2.1689842E0,-5.3739655E-1,1.1386617E-1,1.2350837E0,7E0,6E0,6.42867E-1,-7.692943E-2,8E0,7E0,3.5664245E-2,5.714808E-1,-4.6983812E-2,1.3728174E0,3.831699E-1,-4.9927592E-2,7E0,2.6106312E0,2.4754593E0,-2.4431162E-1,-1.2699275E0,2.014E3,1.2E1,-1.2110964E0,-2.95946E-1,-1.8475991E-1,-3.3204877E-1,-2.1683142E-1,-2.6641884E-1,-1.7022888E-1,6.257813E-1,-1.9851433E-1,-2.4577987E-1,-1.02856204E-1,7.8863263E-1,-1.2166479E-1,-1.3436545E-1,-2.7327177E-1,1.4501231E-2,-9.624893E-2,4.7221377E-1,6.936629E-1,-2.0463635E-1,5.3664383E-2,3.0513644E-2,3.9633816E-1,-2.8442758E-1,3.9348874E-2,1.6783108E-1,1.9903528E-2,2.6783204E-1,7.4359134E-2,2.5119248E-1,-1.7319957E-2,3.0594268E-1,-1.4241263E-1,-4.857336E-1,-1.5445212E-1,-9.886219E-2,8.907114E-2,2.5918755E-1,-9.539499E-2,8.244859E-2,-2.0907007E-1],"split_indices":[13,16,13,15,16,13,12,13,15,0,7,7,7,13,7,8,2,0,7,13,7,0,0,7,7,7,5,13,14,7,1,19,18,13,7,9,8,5,7,7,1,0,5,0,7,4,0,11,20,19,2,0,0,0,0,0,0,0,0,0,0,0,0,0,0,0,0,0,0,0,0,0,0,0,0,0,0,0,0,0,0,0,0,0,0,0,0,0,0,0,0],"split_type":[0,0,0,0,0,0,0,0,0,0,0,0,0,0,0,0,0,0,0,0,0,0,0,0,0,0,0,0,0,0,0,0,0,0,0,0,0,0,0,0,0,0,0,0,0,0,0,0,0,0,0,0,0,0,0,0,0,0,0,0,0,0,0,0,0,0,0,0,0,0,0,0,0,0,0,0,0,0,0,0,0,0,0,0,0,0,0,0,0,0,0],"sum_hessian":[1.5124434E4,1.0580587E4,4.5438457E3,2.4508623E3,8.129725E3,3.3174343E3,1.2264116E3,1.2556582E3,1.1952041E3,1.351773E2,7.994548E3,1.1666889E2,3.2007654E3,1.1809233E3,4.5488228E1,5.8235223E2,6.7330597E2,2.792198E1,1.1672821E3,4.9916978E3,3.0028499E3,3.266936E1,8.399953E1,1.7980524E3,1.4027129E3,7.598672E2,4.2105615E2,7.3814E0,3.8106827E1,3.6471036E2,2.1764188E2,6.6312006E2,1.01858835E1,5.288098E2,6.384723E2,9.239803E2,4.0677178E3,1.07782745E2,2.8950671E3,1.6956288E3,1.0242355E2,9.189845E1,1.3108145E3,1.7187045E2,5.8799677E2,4.1922775E2,1.8283974E0,5.252241E0,2.1291587E0,1.5025831E1,2.3080996E1,2.1530386E2,1.4940651E2,2.0530106E2,1.2340808E1,3.2413382E2,3.3898624E2,3.8838222E0,6.3020616E0,4.7999466E2,4.881516E1,6.279201E0,6.321931E2,5.015089E2,4.2247134E2,1.7974415E3,2.2702761E3,7.686851E1,3.091424E1,2.715341E2,2.623533E3,1.6117999E3,8.3828964E1,8.377807E1,1.864548E1,1.0271525E3,2.8366205E2,6.3006523E1,1.0886392E2,5.8093713E2,7.0596223E0,4.1770325E2,1.5245193E0,3.8055854E0,1.4466559E0,1.0355945E0,1.0935642E0,1.3378227E1,1.6476042E0,1.6042532E1,7.038464E0],"tree_param":{"num_deleted":"0","num_feature":"21","num_nodes":"91","size_leaf_vector":"1"}},{"base_weights":[-2.4958977E-3,-2.3426913E-1,2.788993E-1,-5.728699E-1,-7.422058E-2,1.5430971E0,1.21096864E-1,-4.1894326E-1,-8.4467477E-1,-3.7572572E-1,6.20517E-2,1.7646877E0,1.2862759E0,-1.4051878E-1,5.2711046E-1,-7.4461234E-1,-2.504604E-1,-7.2957456E-1,-9.964824E-1,1.2842777E-1,-4.534304E-1,2.2370732E0,1.5002094E-2,1.6676672E0,2.5977304E0,1.3980987E0,3.5070652E-1,-2.293626E-1,3.6645553E-1,1.3363318E0,1.2145689E-1,-9.266297E-1,-5.2273774E-1,-7.163415E-1,-7.267819E-2,-3.912044E-1,-8.347569E-1,-1.025321E0,-6.789465E-1,-2.9110885E-1,5.173582E-1,-7.0903265E-1,-3.4083125E-1,8.245179E-1,5.253869E-1,-6.3189465E-1,7.400248E-2,1.5342073E0,5.8877647E-1,8.331888E-1,5.335384E-1,4.896947E-1,3.8746682E-1,-3.6286306E-2,-4.2620313E-1,-2.7602205E-1,4.608826E-1,1.5545781E0,1.1654267E0,-1.4075406E-1,6.1352E-1,-2.845941E-1,-6.372347E-2,-2.7623186E-1,-1.0110261E-1,-1.2250208E-1,-2.6896018E-1,2.2496596E-2,-1.6950935E-1,1.31793E-1,-2.1321723E-1,-2.9778284E-1,-1.9025502E-1,-2.6087803E-1,-3.1975603E-1,-2.8163937E-1,1.0957817E-1,-2.7529365E-1,-1.6517675E-2,3.9892286E-2,3.1101778E-1,-2.7633214E-1,-1.656162E-1,5.926185E-1,-1.1779651E-1,-2.3498336E-2,-2.1169089E-1,5.2960676E-1,9.912387E-3,4.1215745E-1,5.1105696E-1,1.6916323E-2,-1.3630803E-1,-1.6743845E-1,-5.1412303E-2,2.7691475E-1,-1.2666744E-1,1.7037857E-1,1.2616628E-3,4.3316633E-1,5.9952044E-1,3.7364572E-1,3.3627737E-1,4.382333E-2,-1.0627848E-1,1.2362293E-1,2.7020842E-1],"categories":[],"categories_nodes":[],"categories_segments":[],"categories_sizes":[],"default_left":[0,0,0,0,0,0,0,0,0,0,0,0,0,0,0,0,0,0,0,0,0,0,0,0,0,0,0,0,0,0,0,0,0,0,0,0,0,0,0,0,0,0,0,0,0,0,0,0,0,0,0,0,0,0,0,0,0,0,0,0,0,0,0,0,0,0,0,0,0,0,0,0,0,0,0,0,0,0,0,0,0,0,0,0,0,0,0,0,0,0,0,0,0,0,0,0,0,0,0,0,0,0,0,0,0,0,0],"id":6,"left_children":[1,3,5,7,9,11,13,15,17,19,21,23,25,27,29,31,33,35,37,39,41,43,45,47,49,51,-1,53,55,57,59,61,63,65,67,69,71,73,75,77,79,81,83,-1,-1,85,87,89,-1,-1,-1,-1,-1,91,93,95,97,99,101,103,105,-1,-1,-1,-1,-1,-1,-1,-1,-1,-1,-1,-1,-1,-1,-1,-1,-1,-1,-1,-1,-1,-1,-1,-1,-1,-1,-1,-1,-1,-1,-1,-1,-1,-1,-1,-1,-1,-1,-1,-1,-1,-1,-1,-1,-1,-1],"loss_changes":[9.327715E2,4.2495984E2,1.2884415E3,1.0495227E2,2.1887021E2,3.8519165E1,6.101735E2,8.809546E1,1.5157043E1,6.501724E1,3.7545837E2,2.654773E1,2.7667847E0,1.5745078E2,7.3874146E2,2.1649353E1,8.789795E1,1.8208008E1,2.8686218E0,3.6410538E1,4.1114655E1,1.4483154E1,1.3716597E2,1.05685425E1,6.602783E-1,2.0518494E0,0E0,1.129915E2,3.1756424E1,2.621875E1,1.9368005E2,4.5125732E0,1.811853E1,1.5905258E1,5.600226E1,3.3582672E1,1.1920837E1,1.313385E0,9.940519E0,1.5854599E1,2.2955486E1,1.408989E1,1.2074449E2,0E0,0E0,1.22065735E1,2.2809512E2,4.232666E0,0E0,0E0,0E0,0E0,0E0,5.822677E1,4.9399963E1,1.221107E1,2.2236748E1,1.31813965E1,1.1968994E-1,6.0046387E1,2.9814178E1,0E0,0E0,0E0,0E0,0E0,0E0,0E0,0E0,0E0,0E0,0E0,0E0,0E0,0E0,0E0,0E0,0E0,0E0,0E0,0E0,0E0,0E0,0E0,0E0,0E0,0E0,0E0,0E0,0E0,0E0,0E0,0E0,0E0,0E0,0E0,0E0,0E0,0E0,0E0,0E0,0E0,0E0,0E0,0E0,0E0,0E0],"parents":[2147483647,0,0,1,1,2,2,3,3,4,4,5,5,6,6,7,7,8,8,9,9,10,10,11,11,12,12,13,13,14,14,15,15,16,16,17,17,18,18,19,19,20,20,21,21,22,22,23,23,24,24,25,25,27,27,28,28,29,29,30,30,31,31,32,32,33,33,34,34,35,35,36,36,37,37,38,38,39,39,40,40,41,41,42,42,45,45,46,46,47,47,53,53,54,54,55,55,56,56,57,57,58,58,59,59,60,60],"right_children":[2,4,6,8,10,12,14,16,18,20,22,24,26,28,30,32,34,36,38,40,42,44,46,48,50,52,-1,54,56,58,60,62,64,66,68,70,72,74,76,78,80,82,84,-1,-1,86,88,90,-1,-1,-1,-1,-1,92,94,96,98,100,102,104,106,-1,-1,-1,-1,-1,-1,-1,-1,-1,-1,-1,-1,-1,-1,-1,-1,-1,-1,-1,-1,-1,-1,-1,-1,-1,-1,-1,-1,-1,-1,-1,-1,-1,-1,-1,-1,-1,-1,-1,-1,-1,-1,-1,-1,-1,-1],"split_conditions":[6.0607553E0,-3.3124918E-1,7E0,8E0,-5.846611E-1,7.284786E-1,7.023687E0,-2.0920315E-1,3.6945373E-2,2E0,-4.190144E-1,3.4950098E-1,1.1133145E0,1.3114473E0,8E0,-8.562327E-1,-1.4260942E0,8E0,7.768369E-1,-1.1850278E0,-1.1850278E0,5.256746E-1,-3.9969057E-1,6.71685E-3,3.9326462E-1,-4.190144E-1,3.5070652E-1,8E0,-1.4074804E0,9.7943497E-1,1.5112386E0,3.0039456E-3,-9.871287E-1,-7.8740764E-1,8.63052E-1,-2.9785645E-1,-7.917693E-1,-8.699647E-1,-7.429751E-1,9.2097886E-2,-2.1357704E-2,-1.0726901E0,-1.0249435E0,8.245179E-1,5.253869E-1,-9.7571015E-1,-2.4589178E-1,-3.9229494E-1,5.8877647E-1,8.331888E-1,5.335384E-1,4.896947E-1,3.8746682E-1,6.868586E-1,7.284786E-1,-1.4140238E0,-5.34948E-1,-2.139698E-2,1.3114473E0,7E0,1.992697E0,-2.845941E-1,-6.372347E-2,-2.7623186E-1,-1.0110261E-1,-1.2250208E-1,-2.6896018E-1,2.2496596E-2,-1.6950935E-1,1.31793E-1,-2.1321723E-1,-2.9778284E-1,-1.9025502E-1,-2.6087803E-1,-3.1975603E-1,-2.8163937E-1,1.0957817E-1,-2.7529365E-1,-1.6517675E-2,3.9892286E-2,3.1101778E-1,-2.7633214E-1,-1.656162E-1,5.926185E-1,-1.1779651E-1,-2.3498336E-2,-2.1169089E-1,5.2960676E-1,9.912387E-3,4.1215745E-1,5.1105696E-1,1.6916323E-2,-1.3630803E-1,-1.6743845E-1,-5.1412303E-2,2.7691475E-1,-1.2666744E-1,1.7037857E-1,1.2616628E-3,4.3316633E-1,5.9952044E-1,3.7364572E-1,3.3627737E-1,4.382333E-2,-1.0627848E-1,1.2362293E-1,2.7020842E-1],"split_indices":[16,13,16,8,7,13,16,7,14,0,7,5,13,13,16,13,13,9,2,7,7,13,7,14,13,7,0,9,4,13,13,3,7,14,5,1,13,10,13,13,12,10,7,0,0,14,7,5,0,0,0,0,0,14,13,14,5,5,13,8,13,0,0,0,0,0,0,0,0,0,0,0,0,0,0,0,0,0,0,0,0,0,0,0,0,0,0,0,0,0,0,0,0,0,0,0,0,0,0,0,0,0,0,0,0,0,0],"split_type":[0,0,0,0,0,0,0,0,0,0,0,0,0,0,0,0,0,0,0,0,0,0,0,0,0,0,0,0,0,0,0,0,0,0,0,0,0,0,0,0,0,0,0,0,0,0,0,0,0,0,0,0,0,0,0,0,0,0,0,0,0,0,0,0,0,0,0,0,0,0,0,0,0,0,0,0,0,0,0,0,0,0,0,0,0,0,0,0,0,0,0,0,0,0,0,0,0,0,0,0,0,0,0,0,0,0,0],"sum_hessian":[1.4299949E4,7.8414497E3,6.4585E3,2.515996E3,5.3254536E3,7.157395E2,5.7427603E3,1.6079398E3,9.0805615E2,1.6571715E3,3.668282E3,3.8107184E2,3.3466766E2,3.4928132E3,2.249947E3,5.47067E2,1.0608728E3,5.197721E2,3.8828403E2,2.2122105E2,1.4359504E3,7.6685745E1,3.5915962E3,3.440087E2,3.706315E1,1.6571E2,1.6895766E2,2.9724578E3,5.203555E2,7.505039E2,1.4994431E3,2.9878168E2,2.4828532E2,2.921803E2,7.6869257E2,1.2437584E2,3.9539627E2,3.539127E2,3.4371353E1,1.0654413E2,1.14676926E2,4.3750613E2,9.984443E2,3.509172E1,4.159403E1,2.9938168E2,3.2922146E3,2.4110443E2,1.02904274E2,2.843981E1,8.623337E0,4.7333736E1,1.18376274E2,1.5011746E3,1.4712831E3,6.643201E1,4.5392355E2,3.2604605E2,4.244579E2,9.786522E2,5.207909E2,2.8952817E2,9.253512E0,7.773474E1,1.7055058E2,1.0904937E2,1.8313094E2,5.919902E2,1.767024E2,3.4451794E1,8.992404E1,2.1905215E2,1.763441E2,7.7728745E1,2.7618393E2,2.7603226E1,6.7681284E0,2.8366009E1,7.8178116E1,6.662431E1,4.805261E1,1.8402504E2,2.534811E2,2.1038227E1,9.7740607E2,3.5435448E1,2.6394626E2,7.685017E1,3.2153645E3,1.2851212E2,1.1259231E2,1.229498E3,2.716766E2,9.6863184E2,5.0265125E2,6.642286E0,5.9789722E1,3.6753018E2,8.639338E1,2.64366E2,6.1680046E1,1.4200523E2,2.8245267E2,4.1775058E2,5.609017E2,3.0751447E2,2.1327644E2],"tree_param":{"num_deleted":"0","num_feature":"21","num_nodes":"107","size_leaf_vector":"1"}},{"base_weights":[-1.5643092E-4,2.5370842E-1,-1.7921816E-1,1.5723842E-1,5.5851763E-1,-7.769241E-2,-5.591364E-1,-3.951145E-1,2.1022183E-1,1.1692197E0,2.638763E-1,7.939253E-3,-4.1835862E-1,-3.754603E-1,-8.246508E-1,-2.420403E-1,-9.907816E-1,4.1501942E-1,7.569486E-2,3.7606364E-1,3.2617086E-1,1.04653865E-1,6.5104884E-1,-7.203832E-2,3.130961E-1,-5.842679E-2,-5.476315E-1,-4.4042477E-1,1.2814206E-1,-6.9964683E-1,-1.0093193E0,-9.989954E-2,-7.810305E-1,-1.0833348E0,1.5970472E-1,1.582241E-1,1.4097933E0,-8.775222E-2,4.5754445E-1,-3.468888E-1,2.5480098E-1,8.3298683E-1,2.7089944E-1,1.1929788E-1,-1.9845752E-1,1.5589552E0,-1.763628E-2,-5.100902E-1,4.8262113E-1,-4.4374204E-1,-8.6363864E-1,-3.474415E-1,-7.4147654E-1,5.2026033E-1,-1.2958765E-1,-9.1006255E-1,-5.237689E-1,-1.0253923E0,-7.964906E-1,-7.750191E-2,1.1743816E-1,-3.7525067E-1,-1.1787583E-1,-3.436316E-2,-3.6293393E-1,1.8700933E-1,-2.2390342E-1,-3.8984105E-2,8.778087E-2,4.706119E-1,3.6315793E-1,7.429868E-2,-6.454808E-2,4.3721628E-1,-4.8834123E-2,-2.914396E-1,-2.7557636E-2,-1.3917089E-2,1.1994724E-1,2.5684857E-1,7.1362935E-2,-1.3843252E-1,1.6397658E-1,-1.8203712E-1,5.710866E-2,-1.1901732E-1,-1.2366199E-2,5.4999995E-1,4.1084048E-1,-1.5109256E-1,4.807898E-2,-2.1179359E-1,-1.441692E-2,-1.7718881E-2,3.0923787E-1,-1.4793289E-1,5.434721E-1,-2.886993E-1,-1.2529522E-1,-1.497155E-1,-2.1764025E-2,-2.3569404E-1,-5.6954537E-2,3.2177645E-1,-7.58431E-2,-2.7966863E-1,-2.3426108E-2,1.56821E-2,-2.064478E-1,-3.159971E-1,-2.579272E-1,1.2787533E-1,-2.9622278E-1],"categories":[],"categories_nodes":[],"categories_segments":[],"categories_sizes":[],"default_left":[0,0,0,0,0,0,0,0,0,0,0,0,0,0,0,0,0,0,0,0,0,0,0,0,0,0,0,0,0,0,0,0,0,0,0,0,0,0,0,0,0,0,0,0,0,0,0,0,0,0,0,0,0,0,0,0,0,0,0,0,0,0,0,0,0,0,0,0,0,0,0,0,0,0,0,0,0,0,0,0,0,0,0,0,0,0,0,0,0,0,0,0,0,0,0,0,0,0,0,0,0,0,0,0,0,0,0,0,0,0,0,0,0],"id":7,"left_children":[1,3,5,7,9,11,13,15,17,19,21,23,25,27,29,31,33,35,37,-1,-1,39,41,43,45,47,49,51,53,55,57,59,61,63,65,67,69,71,73,75,77,79,81,83,85,87,89,91,93,95,97,99,101,-1,103,105,107,109,111,-1,-1,-1,-1,-1,-1,-1,-1,-1,-1,-1,-1,-1,-1,-1,-1,-1,-1,-1,-1,-1,-1,-1,-1,-1,-1,-1,-1,-1,-1,-1,-1,-1,-1,-1,-1,-1,-1,-1,-1,-1,-1,-1,-1,-1,-1,-1,-1,-1,-1,-1,-1,-1,-1],"loss_changes":[6.1309955E2,1.6394638E2,3.0501306E2,1.24132484E2,2.4093524E2,1.8210023E2,8.101892E1,3.362069E1,1.065461E2,1.6515503E0,5.5763134E1,1.2179019E2,5.8311783E1,3.2366043E1,1.5015808E1,2.2657232E1,8.222679E0,3.9149515E2,1.4583357E2,0E0,0E0,4.3678505E1,1.8014496E1,9.566613E1,4.2702014E2,8.1491585E1,2.9900421E1,2.4234818E1,4.725305E1,1.4674393E1,1.1602783E-1,1.8472061E1,1.0773556E1,8.448189E0,3.195997E0,4.727848E1,8.059998E0,6.9993866E1,4.3461096E2,2.5534252E1,2.1119236E1,2.249611E0,1.7786121E1,8.131886E1,7.422018E1,8.792053E0,7.096739E1,1.641006E1,4.512963E1,7.8415955E1,9.597168E0,2.7902603E1,4.860092E0,0E0,1.4911966E1,3.3397522E0,2.1376686E1,2.511902E-1,5.936102E0,0E0,0E0,0E0,0E0,0E0,0E0,0E0,0E0,0E0,0E0,0E0,0E0,0E0,0E0,0E0,0E0,0E0,0E0,0E0,0E0,0E0,0E0,0E0,0E0,0E0,0E0,0E0,0E0,0E0,0E0,0E0,0E0,0E0,0E0,0E0,0E0,0E0,0E0,0E0,0E0,0E0,0E0,0E0,0E0,0E0,0E0,0E0,0E0,0E0,0E0,0E0,0E0,0E0,0E0],"parents":[2147483647,0,0,1,1,2,2,3,3,4,4,5,5,6,6,7,7,8,8,9,9,10,10,11,11,12,12,13,13,14,14,15,15,16,16,17,17,18,18,21,21,22,22,23,23,24,24,25,25,26,26,27,27,28,28,29,29,30,30,31,31,32,32,33,33,34,34,35,35,36,36,37,37,38,38,39,39,40,40,41,41,42,42,43,43,44,44,45,45,46,46,47,47,48,48,49,49,50,50,51,51,52,52,54,54,55,55,56,56,57,57,58,58],"right_children":[2,4,6,8,10,12,14,16,18,20,22,24,26,28,30,32,34,36,38,-1,-1,40,42,44,46,48,50,52,54,56,58,60,62,64,66,68,70,72,74,76,78,80,82,84,86,88,90,92,94,96,98,100,102,-1,104,106,108,110,112,-1,-1,-1,-1,-1,-1,-1,-1,-1,-1,-1,-1,-1,-1,-1,-1,-1,-1,-1,-1,-1,-1,-1,-1,-1,-1,-1,-1,-1,-1,-1,-1,-1,-1,-1,-1,-1,-1,-1,-1,-1,-1,-1,-1,-1,-1,-1,-1,-1,-1,-1,-1,-1,-1],"split_conditions":[-3.9229494E-1,7.023687E0,7.203989E-1,-1.4074804E0,8E0,6.868586E-1,-1.4442576E-1,1.3518862E0,7E0,1.1133145E0,1.7169724E0,3.0039456E-3,7E0,3.0039456E-3,5.6594455E-1,-1.408257E0,1.8020095E0,6.0517683E0,7.0435247E0,3.7606364E-1,3.2617086E-1,-7.1146446E-1,-5.3740196E-2,6E0,2E-1,-3.3910412E-1,7E0,1.2624806E0,2E-1,8E0,5.4191166E-1,-9.1223955E-1,2.012E3,4E0,-7.0005566E-1,2.4905376E-1,7.284786E-1,-8.396818E-1,8E0,-1.1301085E0,6.42867E-1,1.521564E0,7.0435247E0,-1.4748884E0,1.8820249E-2,5E0,2.0805852E-1,5.03967E0,8E0,6.0517683E0,2.2E1,1E1,1.5287567E0,5.2026033E-1,1E0,1.5E1,-1.2581447E-1,2.2E1,3E0,-7.750191E-2,1.1743816E-1,-3.7525067E-1,-1.1787583E-1,-3.436316E-2,-3.6293393E-1,1.8700933E-1,-2.2390342E-1,-3.8984105E-2,8.778087E-2,4.706119E-1,3.6315793E-1,7.429868E-2,-6.454808E-2,4.3721628E-1,-4.8834123E-2,-2.914396E-1,-2.7557636E-2,-1.3917089E-2,1.1994724E-1,2.5684857E-1,7.1362935E-2,-1.3843252E-1,1.6397658E-1,-1.8203712E-1,5.710866E-2,-1.1901732E-1,-1.2366199E-2,5.4999995E-1,4.1084048E-1,-1.5109256E-1,4.807898E-2,-2.1179359E-1,-1.441692E-2,-1.7718881E-2,3.0923787E-1,-1.4793289E-1,5.434721E-1,-2.886993E-1,-1.2529522E-1,-1.497155E-1,-2.1764025E-2,-2.3569404E-1,-5.6954537E-2,3.2177645E-1,-7.58431E-2,-2.7966863E-1,-2.3426108E-2,1.56821E-2,-2.064478E-1,-3.159971E-1,-2.579272E-1,1.2787533E-1,-2.9622278E-1],"split_indices":[5,16,5,4,16,14,14,14,15,13,13,3,0,3,14,4,13,15,15,0,0,7,14,8,3,1,15,5,3,19,1,2,20,18,1,13,13,14,15,4,13,4,15,13,12,16,3,16,9,15,0,19,7,0,8,8,4,0,0,0,0,0,0,0,0,0,0,0,0,0,0,0,0,0,0,0,0,0,0,0,0,0,0,0,0,0,0,0,0,0,0,0,0,0,0,0,0,0,0,0,0,0,0,0,0,0,0,0,0,0,0,0,0],"split_type":[0,0,0,0,0,0,0,0,0,0,0,0,0,0,0,0,0,0,0,0,0,0,0,0,0,0,0,0,0,0,0,0,0,0,0,0,0,0,0,0,0,0,0,0,0,0,0,0,0,0,0,0,0,0,0,0,0,0,0,0,0,0,0,0,0,0,0,0,0,0,0,0,0,0,0,0,0,0,0,0,0,0,0,0,0,0,0,0,0,0,0,0,0,0,0,0,0,0,0,0,0,0,0,0,0,0,0,0,0,0,0,0,0],"sum_hessian":[1.3485318E4,5.5774575E3,7.907861E3,4.237754E3,1.3397041E3,6.241221E3,1.66664E3,3.7035364E2,3.8674001E3,4.3503665E2,9.0466736E2,4.9883096E3,1.2529113E3,9.8656995E2,6.8007E2,2.957566E2,7.459702E1,1.5324241E3,2.334976E3,2.0741064E2,2.2762602E2,6.4194257E2,2.627248E2,3.9530354E3,1.0352743E3,3.3146677E2,9.214445E2,8.739555E2,1.1261443E2,4.0840518E2,2.7166483E2,2.3497507E2,6.0781536E1,6.909676E1,5.5002646E0,1.2189246E3,3.134995E2,1.6356302E3,6.9934576E2,1.5986491E2,4.8207767E2,1.7687967E2,8.584513E1,1.5727401E3,2.3802952E3,2.1639755E2,8.188768E2,1.8068735E2,1.5077942E2,6.9527313E2,2.261714E2,6.693678E2,2.0458777E2,1.4780438E1,9.783399E1,1.8404466E2,2.2436053E2,2.4903938E2,2.2625433E1,1.7803993E2,5.693513E1,2.649124E1,3.4290295E1,8.1972475E0,6.0899513E1,3.8447552E0,1.6555095E0,3.8765134E2,8.312732E2,1.7058643E2,1.4291309E2,4.5000446E2,1.1856259E3,2.6724667E2,4.3209912E2,4.553618E1,1.1432874E2,1.5690001E2,3.2517764E2,1.6982751E2,7.0521493E0,2.3293764E1,6.2551373E1,1.3953412E2,1.433206E3,1.0521146E3,1.3281807E3,8.485377E1,1.3154378E2,2.18935E2,5.999418E2,1.2651907E2,5.4168274E1,7.628726E1,7.449216E1,6.811446E2,1.4128506E1,1.8424272E2,4.1928684E1,4.3090134E2,2.3846643E2,1.8902763E2,1.5560133E1,8.379368E0,8.945463E1,1.7915106E2,4.893592E0,4.996379E1,1.7439674E2,2.0851735E2,4.0522038E1,2.8891544E0,1.9736279E1],"tree_param":{"num_deleted":"0","num_feature":"21","num_nodes":"113","size_leaf_vector":"1"}},{"base_weights":[1.6608967E-3,-3.3739775E-1,9.7633824E-2,-5.1801926E-1,-2.0347777E-1,2.1627219E0,6.364119E-2,-8.609491E-1,-4.4361177E-1,2.5930083E0,-2.9202053E-1,1.9166903E0,3.1945732E0,-4.9028676E-3,4.4307214E-1,1.5208162E-3,-9.06207E-1,-3.8485432E-1,-8.092389E-1,3.2255297E0,5.385693E-1,-9.7762845E-2,-4.844375E-1,2.365982E0,4.9369386E-1,3.648378E0,5.8696115E-1,-4.8940927E-1,4.210598E-2,2.9081327E-1,6.211514E-1,-2.9077715E-1,1.3059158E0,-9.3464535E-1,-3.333582E-1,-1.7556582E-1,-5.099345E-1,-5.5370927E-1,-9.454977E-1,1.3688095E0,2.6615813E0,-4.0797132E-1,4.3012288E-1,-6.99702E-1,-3.9039454E-1,5.490661E-1,7.667343E-1,1.2170601E0,7.150411E-1,-5.7359314E-1,-3.1238219E-2,1.8956863E0,-1.6267221E-2,6.13633E-1,1.5813452E-1,7.4284416E-1,4.7743392E-1,-2.2642006E-1,6.8103355E-1,-2.8575084E-1,-2.527848E-2,3.869371E-1,-1.9571732E-1,7.777788E-2,-1.2461372E-1,-8.448809E-2,-1.9788803E-1,-2.768702E-1,-7.107738E-2,-7.881553E-3,-2.9205862E-1,4.930736E-1,8.9935946E-1,-1.552433E-1,1.37278205E-2,2.83606E-1,-2.1967119E-1,-6.4166956E-2,-1.701898E-1,-1.9837378E-1,-8.1021145E-2,-1.2595844E-1,9.5053725E-2,6.631145E-1,4.7613794E-1,-1.5936773E-1,2.0325733E-2,1.26882E-1,2.6450643E-1,1.13736674E-1,-1.9313296E-2,2.3176944E-1,-5.9706926E-2,-4.985979E-2,1.6506505E-1],"categories":[],"categories_nodes":[],"categories_segments":[],"categories_sizes":[],"default_left":[0,0,0,0,0,0,0,0,0,0,0,0,0,0,0,0,0,0,0,0,0,0,0,0,0,0,0,0,0,0,0,0,0,0,0,0,0,0,0,0,0,0,0,0,0,0,0,0,0,0,0,0,0,0,0,0,0,0,0,0,0,0,0,0,0,0,0,0,0,0,0,0,0,0,0,0,0,0,0,0,0,0,0,0,0,0,0,0,0,0,0,0,0,0,0],"id":8,"left_children":[1,3,5,7,9,11,13,15,17,19,21,23,25,27,29,31,33,35,37,39,-1,41,43,45,-1,47,-1,49,51,53,55,-1,57,59,61,63,65,67,69,-1,71,73,-1,75,77,-1,-1,-1,-1,79,81,83,85,87,89,91,93,-1,-1,-1,-1,-1,-1,-1,-1,-1,-1,-1,-1,-1,-1,-1,-1,-1,-1,-1,-1,-1,-1,-1,-1,-1,-1,-1,-1,-1,-1,-1,-1,-1,-1,-1,-1,-1,-1],"loss_changes":[4.1724725E2,6.8319244E1,7.0139307E2,3.0333313E1,4.033772E2,3.495465E1,2.5573172E2,8.337112E0,2.0982529E1,1.9442474E1,5.8899582E1,1.2321655E1,9.521606E0,1.8972961E2,4.0613068E1,1.6012522E1,2.9939728E0,2.2315033E1,4.223091E0,7.942108E0,0E0,3.7400903E2,1.5760483E1,1.8484497E-1,0E0,9.449768E-1,0E0,2.8398926E1,8.2164935E2,3.472219E1,1.1758118E1,0E0,1.2432613E1,2.8468628E0,6.615876E0,3.3651886E1,1.8104324E1,5.6086607E0,2.2290192E0,0E0,2.3079834E0,3.2538483E1,0E0,1.3513222E1,1.7160507E1,0E0,0E0,0E0,0E0,1.6378357E1,1.5745636E1,1.9004517E1,3.1859586E2,1.1713425E1,2.8421057E1,1.060144E1,1.5098503E1,0E0,0E0,0E0,0E0,0E0,0E0,0E0,0E0,0E0,0E0,0E0,0E0,0E0,0E0,0E0,0E0,0E0,0E0,0E0,0E0,0E0,0E0,0E0,0E0,0E0,0E0,0E0,0E0,0E0,0E0,0E0,0E0,0E0,0E0,0E0,0E0,0E0,0E0],"parents":[2147483647,0,0,1,1,2,2,3,3,4,4,5,5,6,6,7,7,8,8,9,9,10,10,11,11,12,12,13,13,14,14,15,15,16,16,17,17,18,18,19,19,21,21,22,22,23,23,25,25,27,27,28,28,29,29,30,30,32,32,33,33,34,34,35,35,36,36,37,37,38,38,40,40,41,41,43,43,44,44,49,49,50,50,51,51,52,52,53,53,54,54,55,55,56,56],"right_children":[2,4,6,8,10,12,14,16,18,20,22,24,26,28,30,32,34,36,38,40,-1,42,44,46,-1,48,-1,50,52,54,56,-1,58,60,62,64,66,68,70,-1,72,74,-1,76,78,-1,-1,-1,-1,80,82,84,86,88,90,92,94,-1,-1,-1,-1,-1,-1,-1,-1,-1,-1,-1,-1,-1,-1,-1,-1,-1,-1,-1,-1,-1,-1,-1,-1,-1,-1,-1,-1,-1,-1,-1,-1,-1,-1,-1,-1,-1,-1],"split_conditions":[3.1701696E0,1.5286248E0,4E0,1E0,2E0,5.7774585E-1,1.3114473E0,-1.0696329E0,1.0606691E0,2.4905376E-1,3E0,2.3080084E-1,3.9326462E-1,4.0826325E0,1.1386617E-1,-1.0830699E0,3.0039456E-3,-1.8182024E-1,1.1E1,1.1385474E0,5.385693E-1,2.0657246E0,-3.3124918E-1,-1.0698882E-1,4.9369386E-1,3.0039456E-3,5.8696115E-1,1.0894175E0,5E0,7E0,5.4520315E-1,-2.9077715E-1,1.1E1,3.1E1,1.8053423E-1,6E0,-5.222823E-1,5E0,-1.5540274E0,1.3688095E0,2E0,1E0,4.3012288E-1,-2.1335664E0,5E0,5.490661E-1,7.667343E-1,1.2170601E0,7.150411E-1,1E0,-1.08650275E-1,3.9326462E-1,5.03967E0,1.7169724E0,7E0,1.5E1,5.800614E-1,-2.2642006E-1,6.8103355E-1,-2.8575084E-1,-2.527848E-2,3.869371E-1,-1.9571732E-1,7.777788E-2,-1.2461372E-1,-8.448809E-2,-1.9788803E-1,-2.768702E-1,-7.107738E-2,-7.881553E-3,-2.9205862E-1,4.930736E-1,8.9935946E-1,-1.552433E-1,1.37278205E-2,2.83606E-1,-2.1967119E-1,-6.4166956E-2,-1.701898E-1,-1.9837378E-1,-8.1021145E-2,-1.2595844E-1,9.5053725E-2,6.631145E-1,4.7613794E-1,-1.5936773E-1,2.0325733E-2,1.26882E-1,2.6450643E-1,1.13736674E-1,-1.9313296E-2,2.3176944E-1,-5.9706926E-2,-4.985979E-2,1.6506505E-1],"split_indices":[16,16,16,16,16,5,13,4,14,13,16,13,13,16,7,1,3,4,18,15,0,16,13,5,0,3,0,7,16,0,11,0,0,18,3,8,14,18,4,0,15,17,0,14,15,0,0,0,0,17,13,13,16,13,8,8,11,0,0,0,0,0,0,0,0,0,0,0,0,0,0,0,0,0,0,0,0,0,0,0,0,0,0,0,0,0,0,0,0,0,0,0,0,0,0],"split_type":[0,0,0,0,0,0,0,0,0,0,0,0,0,0,0,0,0,0,0,0,0,0,0,0,0,0,0,0,0,0,0,0,0,0,0,0,0,0,0,0,0,0,0,0,0,0,0,0,0,0,0,0,0,0,0,0,0,0,0,0,0,0,0,0,0,0,0,0,0,0,0,0,0,0,0,0,0,0,0,0,0,0,0,0,0,0,0,0,0,0,0,0,0,0,0],"sum_hessian":[1.2820404E4,2.8277725E3,9.992632E3,1.2027385E3,1.6250339E3,1.6080713E2,9.831825E3,2.1255278E2,9.901857E2,4.9004894E1,1.576029E3,1.321542E2,2.8652922E1,8.328307E3,1.5035184E3,1.0645748E1,2.0190704E2,8.548597E2,1.3532607E2,2.5636074E1,2.336882E1,7.850137E2,7.910153E2,4.6818035E1,8.5336174E1,1.9542624E1,9.110299E0,7.357488E2,7.5925576E3,8.119388E2,6.9157965E2,6.250689E0,4.395059E0,1.91756E2,1.015104E1,3.2068387E2,5.341758E2,4.882568E1,8.650038E1,5.50133E0,2.0134745E1,6.5340027E2,1.3161346E2,2.3854506E2,5.524703E2,1.5031184E1,3.178685E1,1.3103682E1,6.4389415E0,6.213337E2,1.1441509E2,2.3084483E2,7.361713E3,2.3544772E2,5.76491E2,3.7222733E2,3.1935233E2,1.4702113E0,2.924848E0,1.8769447E2,4.0615253E0,1.1676342E0,8.983405E0,1.1396441E2,2.0671947E2,2.1268077E2,3.21495E2,2.1664188E1,2.7161493E1,2.6170232E0,8.388336E1,6.4615903E0,1.3673154E1,5.262509E2,1.27149345E2,4.082229E0,2.3446283E2,2.7765366E2,2.7481662E2,4.811936E2,1.4014006E2,5.3962116E1,6.0452976E1,1.1123475E2,1.1961008E2,1.0318931E3,6.32982E3,1.3908278E2,9.636494E1,2.888832E2,2.8760785E2,3.6101526E2,1.1212067E1,3.2313557E1,2.8703876E2],"tree_param":{"num_deleted":"0","num_feature":"21","num_nodes":"95","size_leaf_vector":"1"}},{"base_weights":[1.2399936E-3,-2.0518006E-1,1.1512425E-1,-4.527585E-1,-8.9745484E-2,1.8799654E0,1.0278472E-1,-8.931004E-1,-3.7880364E-1,1.9369997E0,-1.1904885E-1,1.73865E0,7.4613494E-1,9.062134E-3,2.8800693E-1,-9.232408E-1,-2.281692E-1,-3.1582487E-1,-8.469835E-1,7.787784E-1,5.1957834E-1,5.1473152E-2,-3.022693E-1,4.427726E-1,6.040819E-1,8.2471386E-2,-2.9599082E-1,1.2981577E0,2.3737872E-1,-9.34921E-1,1.1528688E-1,2.9156417E-1,-6.0885096E-1,-6.370144E-1,-2.3934907E-1,-8.75542E-1,2.592674E-1,-3.1720668E-1,3.581818E-1,-5.7353944E-1,-1.7240971E-1,5.2034575E-2,1.4637167E0,-3.9822647E-1,6.311774E-1,7.6607025E-1,3.776095E-1,-4.4547954E-1,3.0491656E-1,-2.8566054E-1,2.5674868E-3,-2.8114468E-1,2.6081634E-1,-1.2047735E-1,-2.3255579E-1,6.8406415E-1,-7.893821E-2,-1.5287666E-1,-2.748292E-1,-2.478627E-1,5.667069E-1,-2.0137744E-1,-3.1036405E-2,5.115145E-2,2.2095229E-1,-8.736082E-2,-2.3794237E-1,-1.2569514E-1,1.0671554E-2,2.794519E-2,-1.6058943E-1,5.3876656E-1,3.8894862E-1,-2.3924251E-1,-6.7324266E-2,2.6055488E-1,-4.303116E-2,-1.6304371E-1,7.0170276E-2,4.0894186E-1,7.338792E-2],"categories":[],"categories_nodes":[],"categories_segments":[],"categories_sizes":[],"default_left":[0,0,0,0,0,0,0,0,0,0,0,0,0,0,0,0,0,0,0,0,0,0,0,0,0,0,0,0,0,0,0,0,0,0,0,0,0,0,0,0,0,0,0,0,0,0,0,0,0,0,0,0,0,0,0,0,0,0,0,0,0,0,0,0,0,0,0,0,0,0,0,0,0,0,0,0,0,0,0,0,0],"id":9,"left_children":[1,3,5,7,9,11,13,15,17,19,21,23,-1,25,27,29,31,33,35,-1,-1,37,39,-1,-1,41,43,45,47,49,-1,-1,51,53,55,57,59,61,63,65,67,69,71,73,75,-1,-1,77,79,-1,-1,-1,-1,-1,-1,-1,-1,-1,-1,-1,-1,-1,-1,-1,-1,-1,-1,-1,-1,-1,-1,-1,-1,-1,-1,-1,-1,-1,-1,-1,-1],"loss_changes":[2.89195E2,1.2496367E2,1.724573E2,4.4948273E1,1.7747198E2,3.938141E-1,1.3668642E2,3.782257E0,3.489087E1,1.2593231E0,9.195624E1,4.9064636E-1,0E0,1.1713142E2,1.3499124E2,3.2650757E0,5.145322E0,2.5703117E1,4.674858E0,0E0,0E0,1.7256194E2,4.9877777E1,0E0,0E0,1.7716315E2,9.64213E1,3.0296783E0,1.16378876E2,3.0875244E0,0E0,0E0,4.7854958E0,6.253914E0,5.1631195E1,1.5734406E0,9.193451E0,5.2382896E1,5.9017113E1,2.8218674E1,4.9289978E1,9.968874E1,2.7186127E0,6.3276093E1,1.8720322E1,0E0,0E0,1.5257847E1,1.4604099E2,0E0,0E0,0E0,0E0,0E0,0E0,0E0,0E0,0E0,0E0,0E0,0E0,0E0,0E0,0E0,0E0,0E0,0E0,0E0,0E0,0E0,0E0,0E0,0E0,0E0,0E0,0E0,0E0,0E0,0E0,0E0,0E0],"parents":[2147483647,0,0,1,1,2,2,3,3,4,4,5,5,6,6,7,7,8,8,9,9,10,10,11,11,13,13,14,14,15,15,16,16,17,17,18,18,21,21,22,22,25,25,26,26,27,27,28,28,29,29,32,32,33,33,34,34,35,35,36,36,37,37,38,38,39,39,40,40,41,41,42,42,43,43,44,44,47,47,48,48],"right_children":[2,4,6,8,10,12,14,16,18,20,22,24,-1,26,28,30,32,34,36,-1,-1,38,40,-1,-1,42,44,46,48,50,-1,-1,52,54,56,58,60,62,64,66,68,70,72,74,76,-1,-1,78,80,-1,-1,-1,-1,-1,-1,-1,-1,-1,-1,-1,-1,-1,-1,-1,-1,-1,-1,-1,-1,-1,-1,-1,-1,-1,-1,-1,-1,-1,-1,-1,-1],"split_conditions":[9.2097886E-2,-2.0920315E-1,1.3532083E-1,-1.1333289E0,-7.276918E-2,4.350928E-1,3.8108477E-1,9.292056E-1,1.4123431E0,2.0657246E0,8E0,3.6945373E-2,7.4613494E-1,5.4520315E-1,5.331599E-1,7.9785764E-1,-6.536481E-1,-1.2699275E0,9.292056E-1,7.787784E-1,5.1957834E-1,5E0,-7.917693E-1,4.427726E-1,6.040819E-1,3.408166E-1,1.4153177E0,1.5286248E0,5.714808E-1,1E0,1.1528688E-1,2.9156417E-1,2.017E3,7.133632E-3,-1.0533855E0,-9.0584594E-1,2.5E1,3E0,1.1E1,6E0,7E0,2.9926643E-1,5.744688E-1,5.800614E-1,1.8E1,7.6607025E-1,3.776095E-1,9.0530604E-1,7.0628256E-1,-2.8566054E-1,2.5674868E-3,-2.8114468E-1,2.6081634E-1,-1.2047735E-1,-2.3255579E-1,6.8406415E-1,-7.893821E-2,-1.5287666E-1,-2.748292E-1,-2.478627E-1,5.667069E-1,-2.0137744E-1,-3.1036405E-2,5.115145E-2,2.2095229E-1,-8.736082E-2,-2.3794237E-1,-1.2569514E-1,1.0671554E-2,2.794519E-2,-1.6058943E-1,5.3876656E-1,3.8894862E-1,-2.3924251E-1,-6.7324266E-2,2.6055488E-1,-4.303116E-2,-1.6304371E-1,7.0170276E-2,4.0894186E-1,7.338792E-2],"split_indices":[13,7,13,13,7,5,7,10,14,16,9,14,0,11,7,11,1,11,10,0,0,6,13,0,0,11,11,16,7,17,0,0,20,5,11,5,18,9,6,8,19,11,13,11,0,0,0,2,7,0,0,0,0,0,0,0,0,0,0,0,0,0,0,0,0,0,0,0,0,0,0,0,0,0,0,0,0,0,0,0,0],"split_type":[0,0,0,0,0,0,0,0,0,0,0,0,0,0,0,0,0,0,0,0,0,0,0,0,0,0,0,0,0,0,0,0,0,0,0,0,0,0,0,0,0,0,0,0,0,0,0,0,0,0,0,0,0,0,0,0,0,0,0,0,0,0,0,0,0,0,0,0,0,0,0,0,0,0,0,0,0,0,0,0,0],"sum_hessian":[1.229998E4,4.372975E3,7.927005E3,1.3896339E3,2.9833413E3,5.39888E1,7.873016E3,1.982339E2,1.1914E3,4.159155E1,2.9417498E3,4.6929493E1,7.059305E0,5.22846E3,2.6445562E3,1.8926625E2,8.9676485E0,1.0516134E3,1.3978667E2,7.1046314E0,3.448692E1,1.524048E3,1.4177017E3,2.7254032E1,1.967546E1,4.2148984E3,1.0135616E3,1.2504173E2,2.5195144E3,1.8787294E2,1.3933054E0,1.7856426E0,7.1820064E0,2.0082826E2,8.507851E2,1.364721E2,3.3145614E0,6.9208795E2,8.319601E2,4.5785312E2,9.598486E2,4.1250376E3,8.9860725E1,9.1341315E2,1.0014844E2,1.8689023E0,1.2317283E2,2.2626E2,2.2932544E3,1.8448468E2,3.3882647E0,6.176354E0,1.0056524E0,7.5719795E1,1.25108475E2,7.0669947E0,8.437181E2,1.4968472E1,1.2150363E2,2.2854297E0,1.0291317E0,2.597337E2,4.3235422E2,5.570658E2,2.748943E2,2.0133173E2,2.565214E2,4.387137E2,5.211348E2,3.8559448E3,2.6909296E2,2.68285E1,6.3032227E1,2.759546E2,6.3745856E2,7.656731E1,2.3581133E1,1.9791162E2,2.8348383E1,1.2244636E2,2.1708079E3],"tree_param":{"num_deleted":"0","num_feature":"21","num_nodes":"81","size_leaf_vector":"1"}},{"base_weights":[1.0497441E-3,-3.5694537E-1,5.1101148E-2,-2.0707636E-1,-5.709912E-1,1.8386022E0,2.3450578E-2,-4.3661264E-1,7.7465564E-2,-4.6818113E-1,-8.616164E-1,2.1362817E0,1.597193E0,2.5250015E-1,-4.824E-2,-2.5701743E-1,-5.830879E-1,4.7345877E-1,-2.7909115E-1,-3.4882113E-1,-8.134306E-1,-8.8672256E-1,-1.2162991E-1,5.592531E-1,2.6602938E0,6.2552357E-1,4.463594E-1,-3.0074805E-2,3.2025146E-1,-2.4541503E-1,5.3472795E-2,-2.8524587E-1,1.5145869E0,-4.9019328E-1,-9.5308465E-1,5.613204E-1,-7.312054E-1,-8.231868E-2,-6.667068E-1,-1.499833E-2,-5.982919E-1,-5.947901E-1,-9.5268995E-1,-9.861867E-1,-7.633881E-1,-2.6231807E-1,4.4045657E-1,4.9546468E-1,9.048909E-1,2.546287E-1,-1.9807954E-1,-4.0915874E-1,3.4277436E-1,-6.450616E-1,-1.9386235E-1,1.6530563E0,3.8318396E-2,-3.55175E-1,-6.789009E-2,6.7462087E-1,-2.9948412E-2,-9.960846E-2,-2.3007762E-1,-1.3674463E-1,-3.322214E-1,-5.525356E-2,2.1550067E-1,-2.5770158E-1,4.653053E-2,-1.2285555E-1,1.2514503E-1,7.1652904E-2,-2.3370631E-1,1.795625E-1,-6.2430773E-2,-2.1960144E-1,-6.7878015E-2,-2.9909864E-1,-7.1468435E-2,-1.4249776E-1,-3.011592E-1,-3.028092E-1,-1.5187673E-1,-2.482983E-1,-5.605665E-3,-4.5702036E-2,1.7236695E-1,-1.3903502E-1,-9.9354265E-3,-1.7086127E-1,2.830725E-1,1.12995945E-1,-3.8490515E-2,-2.6962146E-1,-1.5677121E-1,-8.068008E-3,-9.666263E-2,4.3600893E-1,6.871426E-1,9.281452E-2,-1.0569943E-2],"categories":[],"categories_nodes":[],"categories_segments":[],"categories_sizes":[],"default_left":[0,0,0,0,0,0,0,0,0,0,0,0,0,0,0,0,0,0,0,0,0,0,0,0,0,0,0,0,0,0,0,0,0,0,0,0,0,0,0,0,0,0,0,0,0,0,0,0,0,0,0,0,0,0,0,0,0,0,0,0,0,0,0,0,0,0,0,0,0,0,0,0,0,0,0,0,0,0,0,0,0,0,0,0,0,0,0,0,0,0,0,0,0,0,0,0,0,0,0,0,0],"id":10,"left_children":[1,3,5,7,9,11,13,15,17,19,21,23,25,27,29,31,33,35,37,39,41,43,45,-1,47,-1,-1,49,51,53,55,57,59,61,63,65,67,69,71,73,75,77,79,81,83,-1,-1,-1,-1,85,87,89,91,93,95,97,99,-1,-1,-1,-1,-1,-1,-1,-1,-1,-1,-1,-1,-1,-1,-1,-1,-1,-1,-1,-1,-1,-1,-1,-1,-1,-1,-1,-1,-1,-1,-1,-1,-1,-1,-1,-1,-1,-1,-1,-1,-1,-1,-1,-1],"loss_changes":[2.1392963E2,4.6860657E1,5.176765E2,5.6394886E1,1.7600021E1,8.053711E0,1.6941156E2,1.2418968E1,5.4654713E1,1.8148155E1,2.795227E0,4.8058777E0,1.8084259E0,4.7093338E1,1.5760442E2,1.1254971E1,8.55069E0,1.9814743E1,1.5491193E1,2.7816349E1,2.9091644E0,1.0992279E0,8.807377E0,0E0,2.5837555E0,0E0,0E0,2.2844013E1,3.273108E1,5.497203E1,1.2561566E2,1.106105E1,4.4352894E0,9.01469E0,3.4545212E0,2.0199345E1,1.5940108E0,2.245138E1,7.151886E0,1.7176657E1,9.345428E0,6.514351E0,1.1873436E0,3.8054657E-1,3.4224472E0,0E0,0E0,0E0,0E0,2.3170284E1,1.3128485E1,1.3527806E1,3.0769165E1,9.011421E0,5.078276E1,2.861679E0,1.024277E2,0E0,0E0,0E0,0E0,0E0,0E0,0E0,0E0,0E0,0E0,0E0,0E0,0E0,0E0,0E0,0E0,0E0,0E0,0E0,0E0,0E0,0E0,0E0,0E0,0E0,0E0,0E0,0E0,0E0,0E0,0E0,0E0,0E0,0E0,0E0,0E0,0E0,0E0,0E0,0E0,0E0,0E0,0E0,0E0],"parents":[2147483647,0,0,1,1,2,2,3,3,4,4,5,5,6,6,7,7,8,8,9,9,10,10,11,11,12,12,13,13,14,14,15,15,16,16,17,17,18,18,19,19,20,20,21,21,22,22,24,24,27,27,28,28,29,29,30,30,31,31,32,32,33,33,34,34,35,35,36,36,37,37,38,38,39,39,40,40,41,41,42,42,43,43,44,44,49,49,50,50,51,51,52,52,53,53,54,54,55,55,56,56],"right_children":[2,4,6,8,10,12,14,16,18,20,22,24,26,28,30,32,34,36,38,40,42,44,46,-1,48,-1,-1,50,52,54,56,58,60,62,64,66,68,70,72,74,76,78,80,82,84,-1,-1,-1,-1,86,88,90,92,94,96,98,100,-1,-1,-1,-1,-1,-1,-1,-1,-1,-1,-1,-1,-1,-1,-1,-1,-1,-1,-1,-1,-1,-1,-1,-1,-1,-1,-1,-1,-1,-1,-1,-1,-1,-1,-1,-1,-1,-1,-1,-1,-1,-1,-1,-1],"split_conditions":[1.1385474E0,1.8808798E-1,2E0,8E0,7.203989E-1,3.7732385E-2,-9.3036735E-1,6E0,-3.488001E-2,1.3216577E0,1.5E1,2.1831112E-2,-5.846611E-1,-3.3124918E-1,1.8820249E-2,1.0335596E0,2.1E1,1.2910112E0,9E0,6E0,2.1326882E-1,1.7E1,3.408166E-1,5.592531E-1,3E0,6.2552357E-1,4.463594E-1,7E0,-1.1850278E0,-1.0845346E0,6.9525935E-2,-9.1223955E-1,-2.0623872E-1,1.2E1,-5.6495214E-1,6E0,1.0484232E0,6E0,6.419486E-2,1E0,9.1999495E-1,-3.7687474E-1,2.01E3,3.0039456E-3,1.2317026E0,-2.6231807E-1,4.4045657E-1,4.9546468E-1,9.048909E-1,6E0,-3.6366493E-2,1.7169724E0,1.5E1,-1.5724769E0,6E0,2.9243976E-1,6E0,-3.55175E-1,-6.789009E-2,6.7462087E-1,-2.9948412E-2,-9.960846E-2,-2.3007762E-1,-1.3674463E-1,-3.322214E-1,-5.525356E-2,2.1550067E-1,-2.5770158E-1,4.653053E-2,-1.2285555E-1,1.2514503E-1,7.1652904E-2,-2.3370631E-1,1.795625E-1,-6.2430773E-2,-2.1960144E-1,-6.7878015E-2,-2.9909864E-1,-7.1468435E-2,-1.4249776E-1,-3.011592E-1,-3.028092E-1,-1.5187673E-1,-2.482983E-1,-5.605665E-3,-4.5702036E-2,1.7236695E-1,-1.3903502E-1,-9.9354265E-3,-1.7086127E-1,2.830725E-1,1.12995945E-1,-3.8490515E-2,-2.6962146E-1,-1.5677121E-1,-8.068008E-3,-9.666263E-2,4.3600893E-1,6.871426E-1,9.281452E-2,-1.0569943E-2],"split_indices":[15,14,15,19,5,13,14,8,1,14,8,14,7,13,12,3,0,5,9,8,12,18,11,0,16,0,0,9,7,13,12,2,13,9,2,0,11,6,5,15,14,12,20,3,2,0,0,0,0,6,4,13,9,13,8,5,0,0,0,0,0,0,0,0,0,0,0,0,0,0,0,0,0,0,0,0,0,0,0,0,0,0,0,0,0,0,0,0,0,0,0,0,0,0,0,0,0,0,0,0,0],"split_type":[0,0,0,0,0,0,0,0,0,0,0,0,0,0,0,0,0,0,0,0,0,0,0,0,0,0,0,0,0,0,0,0,0,0,0,0,0,0,0,0,0,0,0,0,0,0,0,0,0,0,0,0,0,0,0,0,0,0,0,0,0,0,0,0,0,0,0,0,0,0,0,0,0,0,0,0,0,0,0,0,0,0,0,0,0,0,0,0,0,0,0,0,0,0,0,0,0,0,0,0,0],"sum_hessian":[1.1937246E4,1.4634827E3,1.0473763E4,8.61942E2,6.015407E2,1.5855125E2,1.0315212E4,4.7678845E2,3.8515353E2,4.462785E2,1.5526222E2,6.748584E1,9.106542E1,2.4583438E3,7.856868E3,2.1541728E2,2.613712E2,1.8232967E2,2.0282387E2,3.3312167E2,1.1315682E2,1.4997556E2,5.2866564E0,4.741965E1,2.0066187E1,1.3362529E1,7.7702896E1,4.755387E2,1.982805E3,2.6732446E3,5.1836235E3,2.1286453E2,2.5527549E0,2.1077661E2,5.0594574E1,1.7043324E2,1.1896427E1,1.353341E2,6.748976E1,1.429273E2,1.9019437E2,4.608047E1,6.707635E1,7.914909E1,7.082647E1,3.8932462E0,1.3934102E0,6.7054605E0,1.3360726E1,1.7628603E2,2.992527E2,5.887746E1,1.9239276E3,3.041216E2,2.369123E3,4.7634228E1,5.1359893E3,1.1928002E1,2.0093652E2,1.4846876E0,1.0680673E0,1.3552032E2,7.525627E1,1.2919013E1,3.767556E1,2.9621065E1,1.4081218E2,1.0424138E1,1.4722897E0,8.187695E1,5.3457146E1,7.3227158E0,6.016705E1,3.3713047E1,1.09214264E2,1.3919746E2,5.0996902E1,2.0810215E1,2.5270258E1,7.485236E0,5.9591114E1,7.445051E1,4.698586E0,6.509678E1,5.729693E0,7.781903E1,9.846699E1,1.1402051E2,1.8523218E2,5.3154488E1,5.7229733E0,1.7950332E3,1.288944E2,9.6967155E1,2.0715445E2,1.0301654E3,1.3389576E3,3.8768692E1,8.865534E0,1.0954956E3,4.0404937E3],"tree_param":{"num_deleted":"0","num_feature":"21","num_nodes":"101","size_leaf_vector":"1"}},{"base_weights":[1.0135721E-4,3.7284024E-2,-3.7388316E-1,-1.9445555E-1,1.02354296E-1,-2.4897818E-1,-7.1349907E-1,-1.3126636E-1,-5.3822535E-1,1.7302295E0,7.91344E-2,-3.9627755E-1,-7.833304E-2,-5.6912756E-1,-8.881236E-1,-3.6544226E-2,-4.1496688E-1,-6.128629E-1,3.9809757E-1,2.2663867E0,1.4264413E0,-4.3150517E-1,1.061925E-1,-3.1134242E-1,-9.8685E-1,1.19585015E-1,-4.449839E-1,-4.709473E-1,-9.794973E-1,-9.3919796E-1,-5.7076216E-1,-1.0904373E-1,1.8416251E0,-6.2903804E-1,-2.8270927E-1,-5.373411E-1,-1.0603842E0,-4.753451E-1,7.7454585E-1,1.0194253E0,2.0900183E0,4.6124333E-1,3.429134E-1,-2.939376E-1,-6.516417E-1,1.5575156E0,7.41326E-2,-2.2920083E-1,-6.9568574E-1,-1.0317053E0,9.935529E-2,2.248731E-1,-7.060435E-1,-2.190257E-1,-6.9711894E-1,-6.890095E-1,-2.653381E-1,1.0946714E-2,-3.1331375E-1,1.0056515E-1,-9.567948E-1,-7.5205755E-1,1.9810916E-1,-7.580036E-2,3.8176358E-2,6.137438E-1,3.6328802E-1,-1.6690621E-1,-2.901559E-1,5.290763E-1,-1.5387921E-1,-1.3460365E-1,-2.6291823E-1,-3.5307845E-1,-1.5289824E-1,4.1280627E-2,-2.5277933E-1,4.2132023E-1,5.7827283E-2,2.4902597E-1,6.3991654E-1,-1.626437E-1,-2.3766207E-2,-1.1281704E-1,-2.4294122E-1,6.239796E-1,4.1197398E-1,-1.3081075E-1,3.2335278E-2,-9.7908504E-2,5.5055942E-2,-2.250817E-1,2.5170732E-1,-3.269018E-1,-4.1936085E-2,3.3746388E-2,2.6095894E-1,-2.3657696E-1,7.15113E-2,5.2038223E-2,-1.3862048E-1,-2.090215E-2,-2.8216445E-1,-3.1107324E-1,-1.1933334E-1,9.7509265E-2,-1.6858657E-1,-8.295918E-2,-2.9239723E-1,-2.7393603E-1,1.512794E-1,-2.0840524E-1,3.5059977E-1],"categories":[],"categories_nodes":[],"categories_segments":[],"categories_sizes":[],"default_left":[0,0,0,0,0,0,0,0,0,0,0,0,0,0,0,0,0,0,0,0,0,0,0,0,0,0,0,0,0,0,0,0,0,0,0,0,0,0,0,0,0,0,0,0,0,0,0,0,0,0,0,0,0,0,0,0,0,0,0,0,0,0,0,0,0,0,0,0,0,0,0,0,0,0,0,0,0,0,0,0,0,0,0,0,0,0,0,0,0,0,0,0,0,0,0,0,0,0,0,0,0,0,0,0,0,0,0,0,0,0,0,0,0],"id":11,"left_children":[1,3,5,7,9,11,13,15,17,19,21,23,25,27,29,31,33,35,37,39,41,43,45,47,49,51,53,55,57,59,61,63,65,67,69,71,73,75,77,-1,79,-1,-1,81,83,85,87,89,91,93,-1,95,97,99,101,103,105,-1,-1,-1,107,109,111,-1,-1,-1,-1,-1,-1,-1,-1,-1,-1,-1,-1,-1,-1,-1,-1,-1,-1,-1,-1,-1,-1,-1,-1,-1,-1,-1,-1,-1,-1,-1,-1,-1,-1,-1,-1,-1,-1,-1,-1,-1,-1,-1,-1,-1,-1,-1,-1,-1,-1],"loss_changes":[1.621637E2,1.5996735E2,4.4557526E1,5.0450554E1,3.129264E2,1.9387806E1,6.6299896E0,5.281527E1,2.5458473E1,1.57308655E1,1.1288695E2,2.0478882E1,2.6116316E1,5.893318E0,1.511322E0,2.0103996E2,1.3751831E1,1.0737427E1,9.326012E0,9.6383667E-1,6.661377E-1,1.2260239E1,3.6079803E2,1.1324364E1,3.3948631E0,2.0503532E1,7.0326614E0,5.609825E0,1.9842625E0,2.7259216E0,2.9450593E0,4.8260925E1,4.5890503E0,4.0596924E0,1.450271E2,8.272774E0,2.4347038E0,2.1025143E0,6.845047E0,0E0,2.66037E-1,0E0,0E0,1.3539852E1,6.552109E0,1.327713E1,1.3035397E2,1.2137715E1,5.954212E0,2.4424171E0,0E0,1.500325E1,2.2703724E0,6.563986E0,8.968874E0,5.876835E0,1.2112045E1,0E0,0E0,0E0,1.0191116E0,3.7870502E0,4.8140893E0,0E0,0E0,0E0,0E0,0E0,0E0,0E0,0E0,0E0,0E0,0E0,0E0,0E0,0E0,0E0,0E0,0E0,0E0,0E0,0E0,0E0,0E0,0E0,0E0,0E0,0E0,0E0,0E0,0E0,0E0,0E0,0E0,0E0,0E0,0E0,0E0,0E0,0E0,0E0,0E0,0E0,0E0,0E0,0E0,0E0,0E0,0E0,0E0,0E0,0E0],"parents":[2147483647,0,0,1,1,2,2,3,3,4,4,5,5,6,6,7,7,8,8,9,9,10,10,11,11,12,12,13,13,14,14,15,15,16,16,17,17,18,18,19,19,20,20,21,21,22,22,23,23,24,24,25,25,26,26,27,27,28,28,29,29,30,30,31,31,32,32,33,33,34,34,35,35,36,36,37,37,38,38,40,40,43,43,44,44,45,45,46,46,47,47,48,48,49,49,51,51,52,52,53,53,54,54,55,55,56,56,60,60,61,61,62,62],"right_children":[2,4,6,8,10,12,14,16,18,20,22,24,26,28,30,32,34,36,38,40,42,44,46,48,50,52,54,56,58,60,62,64,66,68,70,72,74,76,78,-1,80,-1,-1,82,84,86,88,90,92,94,-1,96,98,100,102,104,106,-1,-1,-1,108,110,112,-1,-1,-1,-1,-1,-1,-1,-1,-1,-1,-1,-1,-1,-1,-1,-1,-1,-1,-1,-1,-1,-1,-1,-1,-1,-1,-1,-1,-1,-1,-1,-1,-1,-1,-1,-1,-1,-1,-1,-1,-1,-1,-1,-1,-1,-1,-1,-1,-1,-1],"split_conditions":[7.7746016E-1,-7.1146446E-1,3.6945373E-2,1.3518862E0,-5.92137E-1,9E0,5.6594455E-1,-3.1557536E-1,2.6996799E-2,6.720572E-1,-5.846611E-1,5E0,1.2E1,1.376603E0,2.2E1,-5.5317307E-1,-2.9320252E-1,2.3191988E0,4.5177057E-1,2.0657246E0,1.3420855E0,-2.8055672E-2,-4.190144E-1,1.7516731E0,1E0,1.2910112E0,8E0,1.6E1,4E0,-1.5443113E0,2.5E1,8.226608E-1,1.1063721E0,7.9909306E0,-6.963864E-2,8E0,-2.791789E-1,5E0,-9.629072E-1,1.0194253E0,3E0,4.6124333E-1,3.429134E-1,-2.0809335E-1,-3.2517618E-1,3.304977E-1,-3.9969057E-1,2.016E3,3E1,1.4E1,9.935529E-2,3.0039456E-3,1.5287567E0,-1.0096459E0,-6.5818414E-2,5E0,-7.6100737E-1,1.0946714E-2,-3.1331375E-1,1.0056515E-1,2.009E3,1.2E1,1.1385474E0,-7.580036E-2,3.8176358E-2,6.137438E-1,3.6328802E-1,-1.6690621E-1,-2.901559E-1,5.290763E-1,-1.5387921E-1,-1.3460365E-1,-2.6291823E-1,-3.5307845E-1,-1.5289824E-1,4.1280627E-2,-2.5277933E-1,4.2132023E-1,5.7827283E-2,2.4902597E-1,6.3991654E-1,-1.626437E-1,-2.3766207E-2,-1.1281704E-1,-2.4294122E-1,6.239796E-1,4.1197398E-1,-1.3081075E-1,3.2335278E-2,-9.7908504E-2,5.5055942E-2,-2.250817E-1,2.5170732E-1,-3.269018E-1,-4.1936085E-2,3.3746388E-2,2.6095894E-1,-2.3657696E-1,7.15113E-2,5.2038223E-2,-1.3862048E-1,-2.090215E-2,-2.8216445E-1,-3.1107324E-1,-1.1933334E-1,9.7509265E-2,-1.6858657E-1,-8.295918E-2,-2.9239723E-1,-2.7393603E-1,1.512794E-1,-2.0840524E-1,3.5059977E-1],"split_indices":[5,7,14,14,7,19,14,11,1,13,7,19,19,5,0,11,11,14,13,16,13,10,7,4,17,5,9,18,0,7,18,13,13,15,11,19,10,0,5,0,16,0,0,2,11,13,7,20,18,9,0,3,7,14,1,6,12,0,0,0,20,8,15,0,0,0,0,0,0,0,0,0,0,0,0,0,0,0,0,0,0,0,0,0,0,0,0,0,0,0,0,0,0,0,0,0,0,0,0,0,0,0,0,0,0,0,0,0,0,0,0,0,0],"split_type":[0,0,0,0,0,0,0,0,0,0,0,0,0,0,0,0,0,0,0,0,0,0,0,0,0,0,0,0,0,0,0,0,0,0,0,0,0,0,0,0,0,0,0,0,0,0,0,0,0,0,0,0,0,0,0,0,0,0,0,0,0,0,0,0,0,0,0,0,0,0,0,0,0,0,0,0,0,0,0,0,0,0,0,0,0,0,0,0,0,0,0,0,0,0,0,0,0,0,0,0,0,0,0,0,0,0,0,0,0,0,0,0,0],"sum_hessian":[1.1659633E4,1.0606048E4,1.053585E3,2.324751E3,8.281297E3,7.715537E2,2.8203125E2,1.9649504E3,3.5980063E2,1.1542876E2,8.1658677E3,4.1339368E2,3.5816003E2,1.5672084E2,1.2531042E2,1.4739542E3,4.909961E2,3.335571E2,2.624353E1,3.9411247E1,7.601751E1,4.1017188E2,7.755696E3,3.6275067E2,5.0643005E1,2.330393E2,1.2512072E2,1.2819743E2,2.8523396E1,1.06251495E2,1.905892E1,1.4200795E3,5.387477E1,1.860694E2,3.049267E2,2.8727805E2,4.627907E1,7.8250303E0,1.8418499E1,2.8509104E0,3.6560337E1,5.1438454E1,2.4579058E1,2.5386316E2,1.5630872E2,1.6659311E2,7.5891025E3,3.0019052E2,6.2560165E1,4.9186337E1,1.4566659E0,2.0732755E2,2.5711761E1,6.69712E1,5.814952E1,6.107368E1,6.712376E1,1.7384555E0,2.678494E1,1.2012806E0,1.0505022E2,1.5440102E1,3.618818E0,8.8319604E2,5.368834E2,3.9003036E1,1.4871732E1,1.5532745E2,3.0741953E1,3.01633E1,2.747634E2,2.2956905E2,5.770898E1,3.7257572E1,9.0215E0,3.166103E0,4.6589274E0,8.16499E0,1.02535095E1,1.8776797E0,3.4682655E1,1.1704117E2,1.3682199E2,5.8228306E1,9.8080414E1,4.0756897E1,1.2583622E2,4.6887473E2,7.120228E3,2.4315686E2,5.703364E1,6.090503E1,1.6551358E0,4.5976524E1,3.2098157E0,1.7756282E2,2.9764717E1,2.3796803E1,1.9149585E0,2.5720987E1,4.125021E1,1.6613644E1,4.1535877E1,2.666255E1,3.4411133E1,2.2414831E1,4.4708927E1,3.1095529E0,1.0194067E2,1.3927725E1,1.5123769E0,2.0329735E0,1.5858446E0],"tree_param":{"num_deleted":"0","num_feature":"21","num_nodes":"113","size_leaf_vector":"1"}},{"base_weights":[-4.1984115E-4,-5.8837123E-2,2.0328954E-1,-8.145197E-2,5.7140905E-1,1.3603246E0,-7.074583E-2,-1.338452E-1,9.7803414E-2,3.1589532E-1,6.903579E-1,1.5120971E0,1.2106317E0,-5.7644075E-1,1.0365086E-1,-1.10796064E-1,-6.351206E-1,1.521975E0,2.39284E-2,4.2178965E-1,-6.320475E-1,7.327522E-1,1.2305366E-1,1.3809384E0,1.9381809E0,1.2238424E0,3.165131E-1,-4.226641E-1,-8.633602E-1,1.3895111E0,-1.3319622E-1,-1.3815112E-1,1.5343318E0,-4.6228057E-1,-9.2441714E-1,1.4027997E0,2.6223602E0,-5.466813E-1,1.1238593E-1,8.322805E-1,2.444897E-1,-5.8757504E-3,-1.6721468E0,8.3991325E-1,5.715595E-1,4.6717596E-1,-5.53167E-1,4.1532442E-1,1.2059392E-1,6.945911E-2,1.9699892E0,4.166347E-1,1.1488194E0,-1.3695289E-1,2.51744E-1,-6.0991055E-1,-1.8860675E-1,1.4765856E-1,-9.104601E-1,1.3988329E0,-6.670796E-2,-6.487174E-1,1.6760236E-2,-3.3776507E-2,-1.8130417E-1,4.1563824E-1,6.93998E-1,-1.7135952E-1,9.114182E-2,-3.4308457E-1,-1.383775E-1,4.7543743E-1,3.6447942E-1,8.463747E-1,2.767822E-1,3.6850974E-2,-2.051426E-1,4.5610005E-1,1.3978702E-2,-1.3226707E-1,2.7495548E-1,-3.3498578E-2,2.0119226E-1,1.6550973E-1,-1.9633245E-1,-7.440728E-1,-1.12084895E-1,3.017146E-1,2.1039893E-1,1.8631929E-1,-1.9358964E-1,2.1632652E-1,-1.8043539E-1,-4.3122914E-1,9.058747E-2,5.978815E-1,1.3600506E-1,1.5454075E-1,3.478828E-1,1.9574128E-2,-2.2301829E-1,-7.2861515E-2,1.7597365E-1,2.7895185E-1,-6.435517E-2,-2.0037715E-1,-3.1235692E-1,4.4624528E-1,3.4045804E-1,-8.03866E-3,-2.083763E-1,4.2602947E-1,-5.907071E-2],"categories":[],"categories_nodes":[],"categories_segments":[],"categories_sizes":[],"default_left":[0,0,0,0,0,0,0,0,0,0,0,0,0,0,0,0,0,0,0,0,0,0,0,0,0,0,0,0,0,0,0,0,0,0,0,0,0,0,0,0,0,0,0,0,0,0,0,0,0,0,0,0,0,0,0,0,0,0,0,0,0,0,0,0,0,0,0,0,0,0,0,0,0,0,0,0,0,0,0,0,0,0,0,0,0,0,0,0,0,0,0,0,0,0,0,0,0,0,0,0,0,0,0,0,0,0,0,0,0,0,0,0,0],"id":12,"left_children":[1,3,5,7,9,11,13,15,17,19,21,23,25,27,29,31,33,35,37,39,41,43,45,47,49,51,53,55,57,59,61,63,65,67,69,71,73,75,77,79,81,83,85,87,89,91,93,-1,-1,-1,95,-1,97,-1,-1,99,101,103,105,107,-1,109,111,-1,-1,-1,-1,-1,-1,-1,-1,-1,-1,-1,-1,-1,-1,-1,-1,-1,-1,-1,-1,-1,-1,-1,-1,-1,-1,-1,-1,-1,-1,-1,-1,-1,-1,-1,-1,-1,-1,-1,-1,-1,-1,-1,-1,-1,-1,-1,-1,-1,-1],"loss_changes":[1.3528674E2,1.2596985E2,8.0341187E2,8.012254E1,9.087158E0,9.19281E0,1.807967E2,7.61968E1,2.0299905E2,1.0214108E1,4.9139023E0,1.0563171E1,2.557251E0,2.2828629E1,4.6453412E2,2.8426776E2,1.4071465E1,8.799271E0,9.271527E1,6.327715E0,6.7361045E0,2.8605804E0,3.9047124E0,7.180786E-2,2.436432E0,1.4400635E0,2.3944283E0,1.4970219E1,8.823441E0,3.8757324E0,9.9615486E1,7.3934235E1,8.777115E0,1.54863205E1,1.03808975E1,1.083435E0,1.5156174E-1,2.2719048E1,1.4721927E2,3.2625618E0,9.801531E0,3.0620365E0,3.1541166E0,1.914978E0,5.2416E0,3.3985481E0,4.7762775E0,0E0,0E0,0E0,9.125061E-1,0E0,5.951233E-1,0E0,0E0,1.724179E1,6.6385283E0,2.7441523E0,4.8369904E0,3.835083E0,0E0,8.264694E0,2.9984772E2,0E0,0E0,0E0,0E0,0E0,0E0,0E0,0E0,0E0,0E0,0E0,0E0,0E0,0E0,0E0,0E0,0E0,0E0,0E0,0E0,0E0,0E0,0E0,0E0,0E0,0E0,0E0,0E0,0E0,0E0,0E0,0E0,0E0,0E0,0E0,0E0,0E0,0E0,0E0,0E0,0E0,0E0,0E0,0E0,0E0,0E0,0E0,0E0,0E0,0E0],"parents":[2147483647,0,0,1,1,2,2,3,3,4,4,5,5,6,6,7,7,8,8,9,9,10,10,11,11,12,12,13,13,14,14,15,15,16,16,17,17,18,18,19,19,20,20,21,21,22,22,23,23,24,24,25,25,26,26,27,27,28,28,29,29,30,30,31,31,32,32,33,33,34,34,35,35,36,36,37,37,38,38,39,39,40,40,41,41,42,42,43,43,44,44,45,45,46,46,50,50,52,52,55,55,56,56,57,57,58,58,59,59,61,61,62,62],"right_children":[2,4,6,8,10,12,14,16,18,20,22,24,26,28,30,32,34,36,38,40,42,44,46,48,50,52,54,56,58,60,62,64,66,68,70,72,74,76,78,80,82,84,86,88,90,92,94,-1,-1,-1,96,-1,98,-1,-1,100,102,104,106,108,-1,110,112,-1,-1,-1,-1,-1,-1,-1,-1,-1,-1,-1,-1,-1,-1,-1,-1,-1,-1,-1,-1,-1,-1,-1,-1,-1,-1,-1,-1,-1,-1,-1,-1,-1,-1,-1,-1,-1,-1,-1,-1,-1,-1,-1,-1,-1,-1,-1,-1,-1,-1],"split_conditions":[3.0039456E-3,1.8020095E0,2E-1,8.984726E-1,1E0,6.720572E-1,2.0805852E-1,8.7940514E-1,1.0525278E0,1.4E1,1.8435025E0,4.4503042E-1,2.017E3,4.1480193E-1,4E-1,7.351296E-1,9.22531E-1,4.9215403E-1,1.0894175E0,-8.074488E-1,9E0,-1.6761725E0,2.3E1,2.5E1,-1.6498028E0,-5.400841E-1,-5.846611E-1,-9.034433E-2,3E0,1.7862775E0,4.0980345E-1,7.0628256E-1,3.642623E-1,1.4501634E0,3.4432834E-1,5.827885E-1,3.7929192E-1,-7.335082E-2,1.2256503E0,-1.8039953E0,3.8108477E-1,-3.8625933E-2,1.5E1,8E0,2.3088915E0,9.1999495E-1,7.023687E0,4.1532442E-1,1.2059392E-1,6.945911E-2,1.4429271E0,4.166347E-1,-1.4580466E0,-1.3695289E-1,2.51744E-1,-1.3351895E0,2.034301E0,9E0,2.012E3,1.1112052E0,-6.670796E-2,-2.075601E0,6E-1,-3.3776507E-2,-1.8130417E-1,4.1563824E-1,6.93998E-1,-1.7135952E-1,9.114182E-2,-3.4308457E-1,-1.383775E-1,4.7543743E-1,3.6447942E-1,8.463747E-1,2.767822E-1,3.6850974E-2,-2.051426E-1,4.5610005E-1,1.3978702E-2,-1.3226707E-1,2.7495548E-1,-3.3498578E-2,2.0119226E-1,1.6550973E-1,-1.9633245E-1,-7.440728E-1,-1.12084895E-1,3.017146E-1,2.1039893E-1,1.8631929E-1,-1.9358964E-1,2.1632652E-1,-1.8043539E-1,-4.3122914E-1,9.058747E-2,5.978815E-1,1.3600506E-1,1.5454075E-1,3.478828E-1,1.9574128E-2,-2.2301829E-1,-7.2861515E-2,1.7597365E-1,2.7895185E-1,-6.435517E-2,-2.0037715E-1,-3.1235692E-1,4.4624528E-1,3.4045804E-1,-8.03866E-3,-2.083763E-1,4.2602947E-1,-5.907071E-2],"split_indices":[3,13,3,7,17,13,3,7,7,9,12,14,20,14,3,7,10,5,7,11,19,5,18,0,2,7,7,5,0,12,3,7,5,1,2,13,13,11,7,7,7,14,9,16,13,14,16,0,0,0,12,0,1,0,0,14,7,18,20,13,0,5,3,0,0,0,0,0,0,0,0,0,0,0,0,0,0,0,0,0,0,0,0,0,0,0,0,0,0,0,0,0,0,0,0,0,0,0,0,0,0,0,0,0,0,0,0,0,0,0,0,0,0],"split_type":[0,0,0,0,0,0,0,0,0,0,0,0,0,0,0,0,0,0,0,0,0,0,0,0,0,0,0,0,0,0,0,0,0,0,0,0,0,0,0,0,0,0,0,0,0,0,0,0,0,0,0,0,0,0,0,0,0,0,0,0,0,0,0,0,0,0,0,0,0,0,0,0,0,0,0,0,0,0,0,0,0,0,0,0,0,0,0,0,0,0,0,0,0,0,0,0,0,0,0,0,0,0,0,0,0,0,0,0,0,0,0,0,0],"sum_hessian":[1.1366486E4,8.833916E3,2.532571E3,8.528753E3,3.0516266E2,4.8420242E2,2.0483687E3,6.5999546E3,1.9287986E3,9.8096855E1,2.070658E2,2.3591185E2,2.4829057E2,5.2467444E2,1.5236942E3,6.31099E3,2.8896442E2,9.415055E1,1.8346481E3,8.8738914E1,9.357944E0,1.923965E2,1.4669297E1,1.8362785E2,5.2283997E1,2.4431207E2,3.978495E0,3.4320453E2,1.8146992E2,2.362436E2,1.2874506E3,6.208669E3,1.0232124E2,1.8251747E2,1.06446945E2,8.70027E1,7.1478496E0,2.4554433E2,1.5891038E3,2.5652704E1,6.308621E1,6.4690347E0,2.8889089E0,1.13038086E2,7.935842E1,9.926786E0,4.742511E0,1.825654E2,1.0624523E0,1.108108E0,5.1175888E1,7.090783E1,1.7340425E2,1.6558548E0,2.3226402E0,1.897768E2,1.5342773E2,7.982715E0,1.7348721E2,2.3501663E2,1.226978E0,2.8936026E2,9.9809033E2,5.8871045E3,3.2156412E2,8.8237076E1,1.4084167E1,1.60021E2,2.249648E1,7.125506E1,3.5191883E1,4.0415653E1,4.658705E1,5.8084073E0,1.3394421E0,4.175955E1,2.0378477E2,6.995342E1,1.5191503E3,1.3292043E0,2.43235E1,3.4767548E1,2.831866E1,3.5588396E0,2.910195E0,1.2197816E0,1.6691271E0,4.861626E1,6.442182E1,7.67266E1,2.631816E0,8.283739E0,1.6430473E0,1.9967566E0,2.7457545E0,5.0103695E1,1.0721916E0,3.7192132E0,1.6968503E2,3.141113E1,1.5836566E2,1.4403183E2,9.395899E0,2.030383E0,5.952332E0,6.290036E1,1.10586845E2,1.7246263E2,6.2553993E1,1.9984802E1,2.6937546E2,1.3113672E2,8.669537E2],"tree_param":{"num_deleted":"0","num_feature":"21","num_nodes":"113","size_leaf_vector":"1"}},{"base_weights":[4.157176E-3,1.2725168E-1,-7.47138E-2,-2.6993203E-1,1.6753036E-1,1.5419063E-3,-2.7279103E-1,-4.6575218E-1,-1.673433E-2,1.1309631E-2,2.549741E-1,-7.1069315E-2,1.572991E0,-4.7167304E-1,3.422782E-2,-2.7925372E-2,-6.46641E-1,9.569591E-1,-1.7502788E-1,1.7088284E-1,-1.3507526E-1,4.0201315E-1,2.3975737E-1,2.519732E-2,-4.9278772E-1,1.5049068E0,7.174804E-1,-1.9397298E-1,-6.0317147E-1,1.4170941E0,-2.881124E-1,-3.2681656E-1,5.43623E-1,-5.607223E-3,-7.5452286E-1,1.2587491E0,2.8390148E-1,-4.4376913E-2,-6.7939925E-1,2.240104E-1,-3.6966106E-1,2.1483998E-1,-2.1852131E-1,5.164113E-1,1.8424736E-1,-3.8587283E-2,1.6540725E0,-2.466326E-1,-5.713714E-1,1.6619008E0,3.9074215E-1,-4.370159E-1,-2.5468249E-2,-9.2090577E-1,-4.646322E-1,4.5180663E-1,3.4891558E-1,-6.347661E-1,-1.5838121E-1,-1.2538065E-1,4.8498586E-1,3.001691E-1,-4.0115356E-3,-3.9591095E-1,1.6508044E-1,-2.8029332E-1,-9.1664225E-2,4.2459217E-1,9.553505E-2,-3.5049042E-1,3.0914256E-1,-9.7340286E-2,7.8543186E-2,-2.9593605E-1,7.368316E-2,-1.0069941E-1,8.5423514E-2,-6.0914114E-2,-3.431652E-1,-8.416041E-2,1.028626E-1,-4.4547077E-2,-1.9290225E-1,9.2385806E-2,4.0726754E-1,1.05789065E-1,1.7401515E-2,5.6357845E-3,-1.11241594E-1,5.5314976E-1,4.168613E-1,-2.1652934E-1,-1.4870909E-2,-2.5073543E-1,-1.4477704E-1,4.3816128E-1,5.515148E-1,-2.1155949E-1,-2.1653436E-2,1.2690536E-2,-2.8378868E-1,-2.9975167E-1,-1.532463E-1,-4.6948835E-2,-1.7692488E-1,-2.6750654E-1,-4.633314E-2,-1.7175345E-2,-1.9182508E-1],"categories":[],"categories_nodes":[],"categories_segments":[],"categories_sizes":[],"default_left":[0,0,0,0,0,0,0,0,0,0,0,0,0,0,0,0,0,0,0,0,0,0,0,0,0,0,0,0,0,0,0,0,0,0,0,0,0,0,0,0,0,0,0,0,0,0,0,0,0,0,0,0,0,0,0,0,0,0,0,0,0,0,0,0,0,0,0,0,0,0,0,0,0,0,0,0,0,0,0,0,0,0,0,0,0,0,0,0,0,0,0,0,0,0,0,0,0,0,0,0,0,0,0,0,0,0,0,0,0],"id":13,"left_children":[1,3,5,7,9,11,13,15,17,19,21,23,25,27,29,31,33,35,37,39,41,-1,43,45,47,49,-1,51,53,55,57,59,61,63,65,67,69,71,73,75,77,79,81,83,85,87,89,91,93,95,-1,97,99,101,103,-1,-1,105,107,-1,-1,-1,-1,-1,-1,-1,-1,-1,-1,-1,-1,-1,-1,-1,-1,-1,-1,-1,-1,-1,-1,-1,-1,-1,-1,-1,-1,-1,-1,-1,-1,-1,-1,-1,-1,-1,-1,-1,-1,-1,-1,-1,-1,-1,-1,-1,-1,-1,-1],"loss_changes":[1.0719899E2,6.902792E1,1.01649956E2,1.9695732E1,5.3485588E1,5.546712E2,1.1423944E2,1.772649E1,2.7039343E1,3.287107E1,4.1127274E1,1.8864397E2,8.366638E0,4.134175E1,3.286314E2,1.1546396E1,1.0957207E1,4.6261654E0,9.907811E0,1.9416843E1,2.1478313E1,0E0,3.794171E1,3.9319205E2,1.6563812E1,4.2203674E0,0E0,1.4990979E1,3.3466766E1,1.3967896E0,2.6791393E1,8.52442E0,5.925034E0,1.814068E1,1.0665321E1,2.000082E0,1.083852E1,1.0449337E1,9.035342E0,2.0953444E1,7.588236E0,9.092142E0,1.7536915E1,7.2063065E1,4.3864037E1,6.9429054E1,4.5966187E0,1.96956E1,1.4945465E1,1.2072449E0,0E0,1.4618088E1,1.360144E1,6.9608917E0,2.0658035E1,0E0,0E0,1.9916939E1,2.1196085E1,0E0,0E0,0E0,0E0,0E0,0E0,0E0,0E0,0E0,0E0,0E0,0E0,0E0,0E0,0E0,0E0,0E0,0E0,0E0,0E0,0E0,0E0,0E0,0E0,0E0,0E0,0E0,0E0,0E0,0E0,0E0,0E0,0E0,0E0,0E0,0E0,0E0,0E0,0E0,0E0,0E0,0E0,0E0,0E0,0E0,0E0,0E0,0E0,0E0,0E0],"parents":[2147483647,0,0,1,1,2,2,3,3,4,4,5,5,6,6,7,7,8,8,9,9,10,10,11,11,12,12,13,13,14,14,15,15,16,16,17,17,18,18,19,19,20,20,22,22,23,23,24,24,25,25,27,27,28,28,29,29,30,30,31,31,32,32,33,33,34,34,35,35,36,36,37,37,38,38,39,39,40,40,41,41,42,42,43,43,44,44,45,45,46,46,47,47,48,48,49,49,51,51,52,52,53,53,54,54,57,57,58,58],"right_children":[2,4,6,8,10,12,14,16,18,20,22,24,26,28,30,32,34,36,38,40,42,-1,44,46,48,50,-1,52,54,56,58,60,62,64,66,68,70,72,74,76,78,80,82,84,86,88,90,92,94,96,-1,98,100,102,104,-1,-1,106,108,-1,-1,-1,-1,-1,-1,-1,-1,-1,-1,-1,-1,-1,-1,-1,-1,-1,-1,-1,-1,-1,-1,-1,-1,-1,-1,-1,-1,-1,-1,-1,-1,-1,-1,-1,-1,-1,-1,-1,-1,-1,-1,-1,-1,-1,-1,-1,-1,-1,-1],"split_conditions":[-5.064174E-1,-1.4074804E0,7E0,1.5E1,2.47605E-1,6.0517683E0,7.0435247E0,-2.2405586E-1,1.7E1,6E0,2.9842615E-1,6E0,5.7774585E-1,8E0,8E0,1.1E1,4E0,3.5434487E-1,-1.408257E0,1.5896994E0,-1.202424E0,4.0201315E-1,6E0,5.1252737E0,6E0,5.008546E-1,7.174804E-1,8.188789E-2,4E0,1.1063721E0,4E0,2.1609943E0,-6.691173E-1,3.902662E-1,5.918628E-2,8.7940514E-1,6.0517683E0,-1.4059156E0,7.023687E0,5.03967E0,1.2300881E-2,-1.6513585E0,2.1E1,5.03967E0,8E0,5E0,5.256746E-1,-7.499233E-1,4E0,-4.9927592E-2,3.9074215E-1,3.4950098E-1,2.0534623E0,1.2891749E0,-6.2808216E-1,4.5180663E-1,3.4891558E-1,1E0,9.1999495E-1,-1.2538065E-1,4.8498586E-1,3.001691E-1,-4.0115356E-3,-3.9591095E-1,1.6508044E-1,-2.8029332E-1,-9.1664225E-2,4.2459217E-1,9.553505E-2,-3.5049042E-1,3.0914256E-1,-9.7340286E-2,7.8543186E-2,-2.9593605E-1,7.368316E-2,-1.0069941E-1,8.5423514E-2,-6.0914114E-2,-3.431652E-1,-8.416041E-2,1.028626E-1,-4.4547077E-2,-1.9290225E-1,9.2385806E-2,4.0726754E-1,1.05789065E-1,1.7401515E-2,5.6357845E-3,-1.11241594E-1,5.5314976E-1,4.168613E-1,-2.1652934E-1,-1.4870909E-2,-2.5073543E-1,-1.4477704E-1,4.3816128E-1,5.515148E-1,-2.1155949E-1,-2.1653436E-2,1.2690536E-2,-2.8378868E-1,-2.9975167E-1,-1.532463E-1,-4.6948835E-2,-1.7692488E-1,-2.6750654E-1,-4.633314E-2,-1.7175345E-2,-1.9182508E-1],"split_indices":[5,4,15,0,12,15,15,14,0,8,12,15,5,0,15,0,18,14,4,4,14,0,16,15,0,13,0,12,19,13,19,10,1,14,11,7,15,5,16,16,12,5,0,16,9,15,13,1,9,5,0,5,1,11,14,0,0,17,14,0,0,0,0,0,0,0,0,0,0,0,0,0,0,0,0,0,0,0,0,0,0,0,0,0,0,0,0,0,0,0,0,0,0,0,0,0,0,0,0,0,0,0,0,0,0,0,0,0,0],"split_type":[0,0,0,0,0,0,0,0,0,0,0,0,0,0,0,0,0,0,0,0,0,0,0,0,0,0,0,0,0,0,0,0,0,0,0,0,0,0,0,0,0,0,0,0,0,0,0,0,0,0,0,0,0,0,0,0,0,0,0,0,0,0,0,0,0,0,0,0,0,0,0,0,0,0,0,0,0,0,0,0,0,0,0,0,0,0,0,0,0,0,0,0,0,0,0,0,0,0,0,0,0,0,0,0,0,0,0,0,0],"sum_hessian":[1.1039692E4,4.310949E3,6.7287437E3,3.9639905E2,3.91455E3,4.8590864E3,1.8696571E3,2.2305298E2,1.7334607E2,1.4052178E3,2.5093323E3,4.6453936E3,2.1369278E2,1.1343236E3,7.3533344E2,6.5549675E1,1.575033E2,2.3534632E1,1.4981143E2,6.7224286E2,7.329749E2,3.34994E1,2.475833E3,3.7828206E3,8.62573E2,1.9990495E2,1.3787827E1,3.6531717E2,7.690065E2,1.3836023E2,5.969732E2,4.332241E1,2.2227264E1,2.2840002E1,1.346633E2,1.5648057E1,7.8865743E0,1.1985302E2,2.9958408E1,6.126171E2,5.9625713E1,1.4083508E2,5.9213983E2,4.1236453E2,2.0634685E3,3.641212E3,1.4160873E2,2.0973584E2,6.5283716E2,1.0852803E2,9.137692E1,1.4892361E2,2.1639357E2,2.3178023E2,5.3722626E2,9.883473E1,3.95255E1,1.6151016E2,4.3546304E2,4.2131985E1,1.1904272E0,1.17728405E1,1.0454423E1,6.381043E0,1.645896E1,9.5385895E1,3.927741E1,1.2981494E1,2.6665628E0,2.4860103E0,5.400564E0,6.2562824E1,5.72902E1,2.2442324E1,7.5160856E0,5.952865E1,5.530885E2,5.0105244E1,9.520471E0,2.8679947E1,1.1215513E2,5.094426E2,8.2697235E1,3.3156104E2,8.080353E1,8.833959E2,1.1800725E3,3.1057925E3,5.3541925E2,7.898212E1,6.2626617E1,6.07063E1,1.4902954E2,1.6198633E2,4.9085083E2,5.5023197E1,5.3504833E1,8.529365E1,6.3629963E1,2.0244304E2,1.395053E1,1.9342729E2,3.8352936E1,1.5579321E2,3.8143304E2,1.0466752E2,5.684264E1,3.6074185E2,7.472118E1],"tree_param":{"num_deleted":"0","num_feature":"21","num_nodes":"109","size_leaf_vector":"1"}},{"base_weights":[4.8578368E-3,2.8794684E-2,-3.4562734E-1,-3.422053E-1,5.2692365E-2,-2.3006856E-1,-1.0666683E0,-1.4194275E-1,-5.192793E-1,1.8144124E0,4.4773746E-2,-4.5380327E-1,-6.57363E-2,7.844134E-2,-1.1005387E0,-8.6546086E-2,-9.609414E-1,-6.4705175E-1,-8.609273E-2,2.340573E0,4.217116E-1,6.847476E-2,-3.5155487E-1,-1.1153188E0,-3.175284E-1,-6.854801E-1,-3.489021E-3,-2.5410584E-1,2.7483943E-1,-9.011172E-1,-1.4741349E0,-7.5373757E-1,-3.539519E-2,-1.10711E0,1.10214636E-1,-7.957018E-1,-3.4789065E-1,4.1376254E-1,-3.6253792E-1,7.620681E-1,3.396777E-1,-3.6713514E-1,8.875855E-2,-5.3212005E-1,-7.453373E-2,-1.442423E-1,-1.3192023E0,4.1951653E-2,-5.511818E-1,-8.351975E-1,5.17477E-1,2.7684984E-1,-1.3950917E-1,3.9527455E-1,-9.8436105E-1,-9.117749E-2,-1.5235348E0,2.667201E-1,-2.6872227E-1,1.535827E-1,-3.1163374E-2,-3.5709026E-1,-7.774927E-3,-3.142767E-2,-2.530785E-1,-2.7086046E-1,-5.3558987E-2,1.2292683E-2,-2.9680902E-1,-4.851448E-2,-1.9112776E-1,-7.4989125E-2,3.397658E-2,-1.0235275E-1,-2.3153394E-1,4.3705717E-2,-1.1174786E-1,2.4136643E-1,-2.5243217E-1,-4.4393158E-3,-4.4243598E-1,-6.026942E-2,1.8484032E-1,-4.4805598E-2,-2.5589472E-1,-3.0395442E-1,-7.4671015E-2,-1.9764999E-1,3.913556E-1,2.6279181E-2,2.6584858E-1,1.4898092E-1,-6.4079486E-2,-3.0392727E-1,1.0739465E-1,-4.7153345E-1,-1.10725224E-1],"categories":[],"categories_nodes":[],"categories_segments":[],"categories_sizes":[],"default_left":[0,0,0,0,0,0,0,0,0,0,0,0,0,0,0,0,0,0,0,0,0,0,0,0,0,0,0,0,0,0,0,0,0,0,0,0,0,0,0,0,0,0,0,0,0,0,0,0,0,0,0,0,0,0,0,0,0,0,0,0,0,0,0,0,0,0,0,0,0,0,0,0,0,0,0,0,0,0,0,0,0,0,0,0,0,0,0,0,0,0,0,0,0,0,0,0,0],"id":14,"left_children":[1,3,5,7,9,11,13,15,17,19,21,23,25,27,29,31,33,35,37,39,-1,41,43,45,47,49,51,-1,-1,53,55,57,59,61,-1,63,65,-1,67,-1,-1,69,71,73,75,77,79,81,83,85,87,89,91,-1,93,-1,95,-1,-1,-1,-1,-1,-1,-1,-1,-1,-1,-1,-1,-1,-1,-1,-1,-1,-1,-1,-1,-1,-1,-1,-1,-1,-1,-1,-1,-1,-1,-1,-1,-1,-1,-1,-1,-1,-1,-1,-1],"loss_changes":[9.027263E1,8.931759E1,5.707228E1,2.1545525E1,1.3193732E2,2.1815418E1,3.7610016E0,1.2959392E1,1.7832375E1,5.81073E0,8.852968E1,2.2312138E1,1.3257506E1,3.6097703E0,5.5325317E0,9.199968E0,3.9236565E0,1.0814896E1,3.0786299E1,1.2245407E0,0E0,7.859438E1,2.65624E1,8.234203E0,1.765202E1,6.0815763E0,1.1987385E1,0E0,0E0,1.2861099E1,1.298729E0,5.2759085E0,9.504801E0,1.4592915E0,0E0,5.399765E0,7.787736E0,0E0,1.6150333E1,0E0,0E0,2.1845333E1,7.052875E1,1.4462875E1,1.3900824E1,6.30393E0,7.090275E0,1.1782197E1,1.5307522E1,2.6986656E0,4.645322E0,1.1765665E1,1.0080921E1,0E0,2.7120895E0,0E0,1.0346069E0,0E0,0E0,0E0,0E0,0E0,0E0,0E0,0E0,0E0,0E0,0E0,0E0,0E0,0E0,0E0,0E0,0E0,0E0,0E0,0E0,0E0,0E0,0E0,0E0,0E0,0E0,0E0,0E0,0E0,0E0,0E0,0E0,0E0,0E0,0E0,0E0,0E0,0E0,0E0,0E0],"parents":[2147483647,0,0,1,1,2,2,3,3,4,4,5,5,6,6,7,7,8,8,9,9,10,10,11,11,12,12,13,13,14,14,15,15,16,16,17,17,18,18,19,19,21,21,22,22,23,23,24,24,25,25,26,26,29,29,30,30,31,31,32,32,33,33,35,35,36,36,38,38,41,41,42,42,43,43,44,44,45,45,46,46,47,47,48,48,49,49,50,50,51,51,52,52,54,54,56,56],"right_children":[2,4,6,8,10,12,14,16,18,20,22,24,26,28,30,32,34,36,38,40,-1,42,44,46,48,50,52,-1,-1,54,56,58,60,62,-1,64,66,-1,68,-1,-1,70,72,74,76,78,80,82,84,86,88,90,92,-1,94,-1,96,-1,-1,-1,-1,-1,-1,-1,-1,-1,-1,-1,-1,-1,-1,-1,-1,-1,-1,-1,-1,-1,-1,-1,-1,-1,-1,-1,-1,-1,-1,-1,-1,-1,-1,-1,-1,-1,-1,-1,-1],"split_conditions":[1.2E1,-1.3515E0,-8.397412E-3,6E0,-1.1980661E0,5.198986E-1,-2.2278328E0,2.017E3,7.0435247E0,6.94407E-1,1.5E1,-5.766226E-1,-1.621271E0,2.1326882E-1,6.0607553E0,-4.0561694E-1,1.496571E0,1.3E1,8E0,7.0435247E0,4.217116E-1,-1.3080921E0,1E0,5E0,1.1527598E-2,1.8479562E0,-3.2517618E-1,-2.5410584E-1,2.7483943E-1,-1.6345713E0,-1.2699275E0,-1.1301085E0,1E0,1.4247057E0,1.10214636E-1,-2.1544306E0,-1.5969168E-1,4.1376254E-1,-1.0533855E0,7.620681E-1,3.396777E-1,-4.013682E-1,-1.2724161E0,1.6E1,-3.7113968E-1,-4.2581782E-1,-1.3237004E0,1.2587245E0,1.2E1,1.3E1,5.918628E-2,3.8108477E-1,-1.1929712E0,3.9527455E-1,1.3109405E0,-9.117749E-2,1.7420645E0,2.667201E-1,-2.6872227E-1,1.535827E-1,-3.1163374E-2,-3.5709026E-1,-7.774927E-3,-3.142767E-2,-2.530785E-1,-2.7086046E-1,-5.3558987E-2,1.2292683E-2,-2.9680902E-1,-4.851448E-2,-1.9112776E-1,-7.4989125E-2,3.397658E-2,-1.0235275E-1,-2.3153394E-1,4.3705717E-2,-1.1174786E-1,2.4136643E-1,-2.5243217E-1,-4.4393158E-3,-4.4243598E-1,-6.026942E-2,1.8484032E-1,-4.4805598E-2,-2.5589472E-1,-3.0395442E-1,-7.4671015E-2,-1.9764999E-1,3.913556E-1,2.6279181E-2,2.6584858E-1,1.4898092E-1,-6.4079486E-2,-3.0392727E-1,1.0739465E-1,-4.7153345E-1,-1.10725224E-1],"split_indices":[19,7,14,9,7,2,5,20,15,13,9,4,13,12,16,12,1,9,15,15,0,13,17,18,1,10,11,0,0,5,11,4,8,13,0,5,13,0,11,0,0,14,1,0,14,5,4,7,0,6,11,7,5,0,1,0,11,0,0,0,0,0,0,0,0,0,0,0,0,0,0,0,0,0,0,0,0,0,0,0,0,0,0,0,0,0,0,0,0,0,0,0,0,0,0,0,0],"split_type":[0,0,0,0,0,0,0,0,0,0,0,0,0,0,0,0,0,0,0,0,0,0,0,0,0,0,0,0,0,0,0,0,0,0,0,0,0,0,0,0,0,0,0,0,0,0,0,0,0,0,0,0,0,0,0,0,0,0,0,0,0,0,0,0,0,0,0,0,0,0,0,0,0,0,0,0,0,0,0,0,0,0,0,0,0,0,0,0,0,0,